人 -0.378404 -0.051918 -0.248380 0.131048 0.179485 0.063925 -0.156317 0.071466 0.152808 -0.230107 -0.254925 0.186915 -0.198204 -0.116901 -0.152052 0.163948 0.166265 0.329731 -0.078952 0.314776 -0.155695 -0.167588 -0.003973 -0.222720 -0.021185 -0.217116 0.280213 0.144247 -0.449704 0.065253 -0.180508 0.131749 0.255166 0.075297 0.144308 0.009843 -0.145651 0.095614 0.356033 -0.206803 0.023880 -0.197467 0.093856 0.335092 0.154188 -0.141816 -0.066732 -0.022649 0.348936 0.372049 0.007762 -0.363599 0.064526 -0.274379 0.260393 0.056480 -0.006128 0.055154 0.273837 0.125431 0.172947 -0.301352 -0.062136 0.166549 0.158113 -0.268874 -0.393160 0.026207 -0.190772 -0.124408 0.060932 -0.144097 0.323796 -0.057598 -0.164144 0.171034 0.162251 0.128328 -0.126601 0.187638 0.013048 -0.047160 -0.197230 0.141099 -0.006726 0.109846 0.221147 0.078634 0.010361 0.289625 -0.028683 0.374190 -0.054548 -0.161081 -0.112868 -0.053001 -0.204489 -0.093795 -0.225134 0.098612 -0.157697 -0.351606 -0.082095 -0.194084 -0.096272 -0.049307 0.126448 -0.074991 0.081338 0.007621 0.280218 0.161193 -0.092148 0.044695 0.312962 0.277678 -0.060861 0.345263 -0.035994 0.200005 0.006130 0.187080 0.072365 -0.259510 0.044732 -0.195177 -0.299172 -0.110851 -0.162448 0.096998 -0.033757 0.029688 0.119751 0.061481 0.198227 0.020309 -0.018309 0.167220 0.144458 -0.240206 0.127938 -0.393649 0.060855 -0.046730 -0.181477 -0.203494 -0.044009 -0.298924 -0.117416 0.105234 0.007584 -0.516985 0.159455 0.181133 0.042891 -0.004770 0.081286 0.184282 -0.110050 -0.074145 -0.372423 0.071268 0.283550 -0.015260 0.130087 0.219603 0.133314 -0.117513 0.275714 -0.159343 0.074876 -0.320989 0.123758 0.152439 0.115779 -0.167040 0.139645 0.066886 0.157637 0.009722 -0.194212 -0.302993 0.027293 -0.056492 0.469861 -0.122420 -0.113351 0.082295 0.471383 -0.394427 0.037125 -0.016518 0.077887 0.158400 -0.114499 -0.051396 0.134020 0.022283 -0.446218 0.055887
說 -0.105735 0.076121 0.054275 0.132802 -0.057163 0.144430 -0.186432 0.183880 0.148930 -0.177252 0.141628 0.221428 0.232815 0.097070 -0.006232 0.214821 0.242710 0.027959 -0.018931 0.371919 0.176867 0.163600 -0.161447 -0.030957 -0.014577 0.000666 0.106282 -0.222908 -0.097753 0.003076 -0.310087 0.339184 0.023057 -0.104208 0.316676 -0.114948 -0.054048 0.398274 0.360208 -0.175039 -0.211859 0.021393 -0.040375 0.180519 0.073581 -0.035388 -0.216293 -0.246636 0.115865 0.088984 0.192807 -0.099870 -0.012199 -0.198487 0.246990 0.022711 -0.067342 0.122171 0.501271 -0.096532 -0.099446 -0.090464 0.121091 0.333068 0.239247 0.109604 -0.000389 0.099285 0.013107 -0.053897 0.146687 -0.049472 0.239294 -0.184456 0.054813 0.168104 0.009332 0.062690 0.160481 -0.000520 -0.145262 -0.158663 -0.253069 0.295144 0.027651 0.309753 -0.004810 -0.070729 -0.095250 0.157714 -0.374957 0.209265 -0.193648 0.081675 -0.120879 -0.152938 -0.181911 0.185425 -0.229659 0.292313 0.013405 0.077043 0.080187 0.004430 0.045097 -0.138432 0.271033 0.159783 0.002510 0.051834 -0.002153 -0.078933 0.104108 -0.017653 0.324151 0.072417 0.109884 0.291594 -0.121482 0.154244 -0.168443 -0.012538 0.006926 -0.175946 0.154606 -0.203962 -0.269976 0.020490 -0.117148 -0.204062 -0.066728 -0.098371 0.134934 0.076771 0.182730 0.013495 -0.026921 0.309792 0.085769 -0.016745 0.529419 -0.261450 -0.053691 -0.296412 -0.021199 -0.224781 0.030479 0.181202 -0.007132 0.034250 0.063059 -0.375485 0.166965 -0.252757 -0.052591 -0.042828 0.101297 -0.097610 -0.048750 -0.022556 -0.134776 0.101833 0.234310 -0.124563 0.273147 0.096049 -0.067094 0.008891 0.337367 -0.142582 0.150150 -0.245688 0.354708 0.101402 -0.152809 -0.200734 0.310350 -0.072397 0.100228 -0.097947 -0.490336 -0.164699 -0.000369 -0.080382 0.299422 -0.016262 -0.214927 0.324525 0.083337 0.228965 0.184410 0.089158 -0.020274 -0.072460 0.176907 0.037843 -0.034656 0.303161 -0.063493 0.133769
看 -0.109128 -0.184327 -0.061466 0.203963 -0.140213 0.043536 0.111862 -0.017183 0.114726 -0.147576 0.249880 0.295909 0.164882 -0.216700 0.176249 0.230251 -0.069167 0.051282 -0.051016 -0.046080 0.264605 -0.036231 -0.202328 -0.078905 -0.032547 -0.304748 0.167342 -0.039132 -0.071826 0.126179 -0.375473 0.183112 0.153042 0.193493 0.142825 0.042305 -0.245752 0.089096 0.086708 -0.087433 0.079496 -0.153585 -0.229792 0.645256 -0.170247 0.114282 -0.209078 -0.024759 0.248427 0.202632 0.125930 -0.022740 0.311597 -0.058869 0.131650 -0.158444 -0.014104 0.046406 0.358348 -0.125711 0.068827 -0.020645 0.102291 0.059414 0.097835 -0.109735 -0.257345 -0.065197 -0.076757 -0.143979 -0.233100 -0.065708 0.138149 0.063989 -0.154406 0.406442 0.448094 0.115129 0.335130 -0.217646 0.150681 -0.283205 -0.347946 0.164628 0.117074 0.147630 0.129140 -0.033361 -0.236340 0.061850 -0.170371 0.237406 -0.054688 0.303377 -0.182221 -0.166663 -0.072153 0.238246 -0.061799 0.200540 -0.139676 0.204507 -0.015435 -0.004000 -0.222068 -0.176925 0.155291 -0.092320 -0.221375 -0.006354 0.205189 0.002124 -0.015035 0.139322 0.488304 0.134901 0.158342 0.185314 -0.041425 0.134890 0.149420 -0.153795 -0.403359 0.247513 0.036967 -0.082776 -0.197216 0.073971 0.241598 -0.150936 -0.056837 -0.062222 -0.004576 -0.075424 0.138893 -0.038964 0.116524 0.275824 -0.017702 -0.046322 0.329962 -0.144159 0.039868 -0.320582 -0.079611 -0.141153 0.111392 -0.004457 -0.028600 0.138692 0.083321 -0.045590 -0.286354 0.070335 -0.086157 -0.035642 -0.287949 -0.086905 0.293815 -0.092597 -0.428350 0.140142 0.034389 -0.001434 0.280015 -0.012341 0.112054 -0.144061 0.249962 -0.244687 0.244175 -0.468793 0.294976 -0.198395 0.092264 0.140328 0.323110 -0.133720 0.017734 -0.098437 -0.453795 -0.148472 0.415352 0.203576 0.142975 -0.011622 -0.172741 -0.088697 -0.124444 0.045202 -0.200321 -0.247664 0.057180 -0.252127 -0.055369 -0.092905 0.234996 -0.097660 -0.068867 0.063689
推 -0.507095 0.047359 -0.152868 0.115227 -0.140971 0.398912 -0.230835 0.141658 -0.078543 -0.161664 -0.000873 0.114298 0.073939 0.019173 0.058156 0.559838 0.054227 0.113102 -0.235314 0.115294 0.197457 0.188527 -0.223226 -0.084855 -0.035481 -0.231783 0.025178 0.061127 0.012667 0.048015 -0.202897 -0.005839 0.024594 -0.181975 -0.188776 0.225196 -0.148659 0.170519 0.114065 0.092197 -0.207085 0.286090 -0.233256 0.292469 0.089483 0.092957 0.071463 0.145754 -0.180785 -0.052542 0.323567 -0.050074 0.128471 -0.236479 -0.035331 0.123645 -0.057834 0.234549 -0.128129 -0.085137 0.163686 0.100052 -0.005612 0.335821 0.222226 -0.182915 0.064860 -0.306179 -0.062853 -0.252472 -0.020412 -0.246754 0.257749 -0.212687 0.233995 0.366200 0.277011 -0.044998 0.265854 -0.273623 0.108573 -0.006541 0.044529 0.017978 0.132611 0.210036 0.264970 0.105342 0.205021 0.209823 -0.232609 0.170270 -0.003527 -0.012134 -0.081811 -0.326683 0.045117 0.085766 -0.055476 0.222158 0.040634 0.012453 0.042972 -0.004259 -0.027384 -0.198448 0.373452 0.114905 0.065116 -0.028812 0.200738 -0.022376 -0.094605 -0.087529 0.426310 0.402651 0.120936 0.229179 -0.026472 0.283682 0.026340 -0.121774 0.260354 -0.312333 -0.278630 -0.177079 0.047612 -0.088714 -0.131782 -0.091809 0.024335 -0.164258 -0.086159 -0.128045 0.369805 0.323185 0.381435 0.078496 -0.029836 -0.391951 0.396681 0.169724 -0.102969 -0.117629 0.039096 -0.387037 -0.111117 -0.342954 -0.293228 0.396031 -0.254387 -0.137939 0.128258 -0.347947 -0.223086 0.201685 -0.190579 0.033303 0.157672 -0.239124 -0.195682 0.033365 0.045935 0.319193 0.302212 0.328829 0.167076 0.011055 -0.028446 -0.387611 0.142657 -0.335524 0.143515 -0.107360 0.081252 -0.297481 -0.018076 0.085606 0.003130 0.011704 -0.244620 -0.017320 0.278266 0.140282 0.204101 0.254703 -0.060237 0.219772 -0.017125 -0.001400 0.072958 -0.300586 0.232822 -0.064517 0.323661 -0.066181 0.039678 0.203877 -0.512319 -0.001476
上 -0.030189 -0.013729 -0.000129 0.130037 -0.030247 0.150948 -0.029715 -0.261685 0.048848 -0.120886 -0.147815 0.134957 0.254816 -0.279762 0.218109 -0.016757 0.147118 0.100989 0.065449 0.382565 0.331916 -0.027347 -0.065721 -0.098018 0.233465 -0.446919 -0.192312 0.082811 -0.283267 -0.139291 -0.415918 0.241708 0.054188 -0.026804 0.036763 -0.112867 -0.108887 -0.042655 0.299186 -0.215959 -0.100689 -0.068740 -0.257134 0.108464 -0.392753 -0.013382 0.139684 -0.086358 0.028789 0.253252 0.214195 -0.257950 -0.067022 -0.354892 0.292459 -0.098199 -0.054458 0.355892 0.072610 -0.028664 0.309891 -0.256047 -0.113498 -0.129374 0.456926 -0.336739 -0.216800 0.115567 0.212730 -0.178980 0.237024 -0.152348 0.182881 -0.174849 0.219221 0.262383 0.353767 0.203663 0.349360 0.022455 0.332394 -0.270897 -0.329142 0.374969 -0.293641 0.530879 0.174458 0.103370 0.038615 0.083381 -0.118969 0.077934 -0.118696 0.447313 -0.037718 -0.146491 -0.094533 0.412461 0.128486 0.159728 -0.152941 -0.297625 -0.088040 0.008883 0.388198 0.013897 -0.115081 -0.160552 -0.190689 -0.239384 0.152803 -0.021293 0.053996 -0.033841 0.286899 0.296650 0.521669 0.358089 0.093506 -0.096563 0.124772 -0.283680 -0.110157 -0.149821 0.188756 -0.050757 0.026386 0.142869 0.041808 -0.305554 -0.328755 -0.100393 -0.222723 -0.152909 0.320359 0.293733 -0.334851 0.118408 -0.142027 -0.089946 0.066783 -0.177183 -0.027216 -0.100707 0.009088 0.012925 -0.097789 -0.277000 -0.375069 0.072604 0.189195 -0.304765 0.113858 -0.173593 -0.338172 -0.119637 -0.078566 0.196212 -0.178977 -0.127119 -0.297582 -0.055567 0.043975 0.107906 0.051349 -0.014845 -0.027009 -0.069926 0.374263 -0.184227 -0.140943 -0.380303 0.133202 0.138940 0.074811 0.136720 0.282424 0.129580 0.255984 0.244655 -0.322635 -0.056206 0.233772 -0.232652 0.182362 -0.092049 -0.069739 0.303913 0.168778 0.288891 0.226930 -0.284284 -0.096978 -0.125399 -0.304661 -0.352958 0.151666 -0.055736 -0.004523 -0.012632
大 -0.197418 0.045420 -0.616978 0.082282 -0.299916 0.484111 0.096422 0.181558 0.008205 -0.003828 0.186927 0.258743 0.245157 -0.453026 -0.074756 -0.149273 0.075831 0.110360 0.052200 0.345834 0.251046 0.305794 -0.020532 0.007418 0.102009 -0.141740 0.229888 -0.105132 -0.444552 -0.150147 0.069938 0.182877 0.361447 0.066449 -0.064041 -0.083936 -0.145209 -0.044038 0.271230 -0.221923 -0.020042 0.092689 -0.335229 -0.067500 0.166323 0.043526 -0.037615 0.063731 -0.011885 0.242160 0.382684 -0.082134 0.044232 -0.118511 0.210526 0.071700 -0.018007 -0.083250 0.048163 0.130189 0.101443 -0.227097 0.221870 0.307651 0.108775 -0.254500 -0.327369 -0.068214 -0.054918 -0.251127 0.097083 0.003702 0.100486 -0.223799 0.312916 0.029230 0.089484 0.105650 -0.109843 -0.117271 -0.111913 -0.538209 -0.196388 0.094636 0.197054 0.109112 -0.002134 0.305934 0.100906 0.186931 -0.372053 0.285413 -0.333604 0.042195 0.065530 -0.039275 -0.073082 -0.105105 0.026203 0.091760 -0.060956 -0.171871 0.198943 -0.221532 -0.573357 -0.155751 0.111968 0.226144 -0.063814 -0.136227 -0.177183 -0.011444 -0.023497 0.299138 0.351480 0.578649 0.085890 -0.231036 -0.119243 0.335405 0.201133 -0.315277 0.039944 -0.011266 -0.113627 0.292639 0.174968 0.057357 -0.044822 0.001661 -0.071772 0.052069 -0.136479 0.355366 0.104521 0.289067 0.215227 0.034417 -0.053576 -0.288837 0.510752 -0.166010 -0.051313 -0.058771 -0.039505 0.066598 -0.247347 0.141687 0.039594 -0.206359 -0.215204 -0.519969 -0.089913 -0.137159 -0.295535 0.041356 0.130764 0.151268 -0.232201 -0.010228 -0.285616 -0.238275 0.099511 -0.041613 -0.010028 -0.118080 -0.133249 0.084018 0.243381 -0.413123 0.305721 -0.331217 0.132076 0.187526 0.153368 -0.110474 0.196242 -0.089794 -0.036185 0.236418 0.225040 -0.172110 0.338026 -0.355100 0.226805 -0.268046 -0.327058 -0.020638 -0.100612 -0.471539 0.280395 -0.084296 -0.020124 0.048771 0.064882 -0.343231 0.097931 0.291042 -0.091971 -0.022933
一 -0.309013 -0.099187 -0.161435 -0.205698 -0.331380 -0.146282 -0.139178 0.062740 0.143595 0.335363 0.182712 0.140931 -0.079309 -0.221493 -0.090522 0.511031 0.354803 0.189867 0.120151 0.411022 0.166097 0.301386 -0.071289 -0.319762 -0.184978 -0.035751 -0.090479 0.021610 -0.480698 -0.202424 -0.273452 0.063486 0.028235 -0.059918 -0.194291 0.343554 -0.291340 0.051100 0.351508 -0.318357 0.194641 0.260162 -0.455516 0.267203 0.083973 0.254343 -0.133179 -0.163447 0.242611 0.239037 -0.185806 -0.362690 -0.263241 -0.047164 -0.070902 0.136295 -0.119717 0.115879 0.216189 0.264397 0.009959 -0.060849 -0.068928 0.122788 0.271011 -0.253317 -0.198974 0.133562 -0.087459 -0.213168 -0.031429 0.136592 0.402359 -0.380903 -0.080060 0.012375 0.072363 0.362080 0.094694 -0.015930 0.184223 -0.366832 -0.108750 0.210901 0.050186 0.246180 0.070131 0.173926 -0.115931 0.186913 0.036787 0.354749 -0.020223 0.014703 -0.257131 0.031618 0.204659 0.099869 -0.088399 0.141732 0.147172 0.120702 0.174128 -0.269269 -0.150887 0.016957 -0.225958 0.113473 -0.138640 -0.025161 -0.037818 -0.286504 -0.107715 -0.090053 0.514209 -0.245925 0.051125 0.560598 0.091730 0.452517 0.444657 0.021224 -0.444540 -0.010289 0.256500 -0.074524 -0.395198 0.238626 0.033510 -0.062040 -0.279451 -0.108681 0.143412 0.136790 0.012187 -0.104262 -0.221651 0.122897 0.129122 -0.023520 0.262326 0.053396 0.138644 -0.045637 0.152553 0.007171 -0.114447 0.140850 -0.153418 0.164525 -0.209611 -0.147578 -0.131999 -0.243570 0.229632 -0.339685 -0.065274 -0.161293 0.165824 -0.079075 -0.246335 0.148724 -0.155246 0.074485 0.073965 0.092277 -0.094372 0.105432 0.266447 -0.425240 -0.041838 -0.139917 0.254165 -0.001356 0.021808 -0.031395 0.108602 -0.163700 -0.063093 -0.020995 0.102372 -0.171217 -0.145291 0.028945 0.323095 -0.094208 -0.147055 0.195666 0.199106 -0.015363 0.316532 0.259154 -0.418105 0.194304 -0.096748 -0.305625 -0.415832 0.344260 -0.067927 0.293051
台灣 0.085043 -0.110536 -0.060382 0.158746 0.002391 -0.004512 -0.037586 0.177985 0.053781 0.107325 0.098493 -0.157404 0.255924 0.011090 0.229875 0.011627 0.144262 -0.012756 -0.043736 0.238032 -0.072564 0.138039 -0.254896 -0.473676 0.090740 -0.277481 -0.064324 -0.028096 -0.184057 0.310309 -0.352907 0.030003 0.219343 -0.117336 0.109378 0.067042 -0.171665 0.039774 0.215521 -0.153203 -0.117965 -0.073139 -0.221958 0.092539 0.149118 0.031067 -0.023768 -0.053095 0.275257 -0.160507 0.109707 -0.171281 -0.307675 -0.237568 0.236801 -0.131332 0.048661 -0.187024 0.115769 0.410643 0.168843 -0.229635 0.083947 -0.041863 0.157089 -0.182618 -0.156982 0.255411 -0.252719 -0.269227 0.198508 0.020060 0.109843 -0.079242 0.161705 -0.254565 0.127349 0.291012 0.116413 -0.100718 0.008065 -0.137599 -0.280773 0.311269 0.173859 0.197743 0.235707 -0.090350 -0.126800 -0.057052 -0.353748 0.341918 0.098521 0.010734 0.031215 0.161631 -0.106770 0.185572 -0.170678 -0.246326 -0.074403 0.144758 0.174765 -0.027880 0.057234 -0.145826 0.330679 0.225436 0.281015 -0.163328 0.215741 0.010131 -0.093849 -0.029248 0.187667 0.207203 0.177760 0.134762 -0.237581 0.292257 0.252036 -0.049150 -0.205707 -0.189323 -0.193672 0.034106 -0.167369 -0.095499 -0.136101 0.198201 -0.029745 0.119194 0.366585 0.093840 0.186563 0.010348 0.164723 0.031067 0.055608 -0.362009 0.295372 0.053979 -0.234256 -0.149460 -0.036941 -0.045785 -0.093562 -0.099664 -0.242173 -0.285653 -0.170459 -0.029803 0.244369 -0.293647 0.075549 -0.024851 0.022482 -0.163908 -0.153081 0.045914 -0.211937 0.197265 0.325312 0.165526 0.096644 0.306985 0.058107 -0.232668 0.159331 -0.010552 -0.071739 -0.493441 -0.127525 -0.156578 -0.197512 -0.129725 -0.110196 0.052406 -0.079152 0.182558 -0.251990 -0.492577 0.210250 -0.365725 0.476038 0.120022 -0.324745 0.084445 0.062791 0.079535 0.015865 0.042189 0.194733 0.353001 -0.303296 -0.098682 0.137559 -0.176209 0.028996 0.200186
小 -0.363665 -0.185660 -0.215712 0.154466 -0.202931 0.133691 -0.090999 0.159858 -0.178839 0.013143 0.110384 -0.005727 0.014026 0.084521 -0.088200 -0.155738 -0.108593 0.119250 -0.018706 0.184195 0.313858 0.202258 -0.173380 -0.431938 0.194483 -0.039165 0.024403 0.164190 -0.266362 0.010602 0.070828 0.241941 -0.127162 -0.270431 -0.203405 -0.025686 -0.004477 -0.257097 0.534417 -0.073173 0.088932 -0.053469 -0.045170 0.259460 -0.206876 0.113114 -0.083491 0.238240 0.176590 0.631601 0.189955 0.302095 -0.031057 -0.126487 0.288536 -0.057349 -0.017650 0.333214 -0.139453 -0.217759 0.101163 -0.184636 0.296943 0.414432 0.250875 -0.362107 -0.276735 -0.029533 -0.266087 -0.307764 0.189032 0.074490 0.095223 -0.117140 -0.014958 -0.039485 0.274409 0.226312 0.272125 -0.154393 0.006336 -0.338402 -0.251774 0.077623 0.291434 0.018879 -0.383285 0.075826 0.025051 0.312673 -0.417576 0.202540 -0.248451 -0.104806 -0.077360 -0.140205 0.090925 0.173679 -0.357853 0.259117 0.092906 -0.459827 0.329805 0.088252 -0.371278 -0.236741 0.044464 -0.143400 0.071846 0.083697 0.036098 -0.231908 0.204205 0.021877 0.523200 0.096865 0.049185 0.295427 -0.198581 0.268351 0.129039 -0.524264 -0.191717 0.124366 -0.133762 0.092348 -0.028702 0.256586 -0.178767 0.014431 -0.246048 0.080518 -0.045773 0.438936 -0.055915 -0.225953 0.346292 0.086046 -0.422130 -0.022476 0.376797 -0.077037 -0.097250 -0.109240 0.168407 0.011810 -0.082429 -0.011031 -0.267268 -0.029903 -0.082780 0.012388 0.083753 -0.418661 0.080150 -0.387013 0.421812 0.184578 -0.370398 -0.136811 -0.242331 -0.093901 -0.036751 0.235798 0.240532 -0.007111 -0.018398 -0.045718 0.224864 -0.285821 0.074865 -0.084720 0.197269 0.585286 -0.088873 -0.042982 0.250087 0.061534 -0.055027 0.038049 0.223602 -0.123569 0.088747 0.088817 0.293795 -0.098136 0.108340 -0.230909 -0.035550 -0.018014 0.367394 0.227803 -0.051152 -0.172702 -0.101976 -0.159960 -0.197217 0.122022 -0.082204 0.035709
女生 -0.114017 0.239553 -0.069453 0.356335 0.092870 0.135903 -0.019140 0.044133 -0.114555 -0.517249 -0.394148 0.315325 -0.035033 -0.307926 -0.226129 0.091411 0.256892 0.178666 -0.236487 -0.046537 0.353575 -0.013477 0.126185 -0.154298 -0.081390 -0.568795 0.177094 0.207432 -0.059470 -0.001571 -0.266148 0.360852 0.108261 -0.145000 0.266234 -0.029027 0.105294 0.238230 0.296961 0.010881 0.250483 -0.336075 0.131182 0.462362 0.071063 -0.124782 0.056327 0.107957 0.145542 0.277243 0.121192 -0.009043 -0.179176 -0.145955 -0.009412 -0.149445 0.145725 0.117202 -0.015825 0.011431 0.158014 -0.144353 -0.187583 0.203518 0.079518 -0.140509 -0.254009 -0.038927 -0.015019 -0.146176 0.157114 -0.172880 0.275487 -0.090608 -0.097929 0.014620 0.262668 0.129031 0.063016 0.226784 0.097429 -0.094102 -0.029766 -0.050454 0.156091 0.161101 0.085425 0.303891 -0.121293 0.009111 -0.120037 0.326962 -0.212143 -0.270268 -0.336928 -0.472865 -0.228161 -0.407067 -0.080663 0.019683 0.015502 -0.404866 0.328191 -0.031752 -0.217125 -0.040585 0.023339 -0.115737 -0.096498 -0.064123 0.354443 -0.029242 -0.118341 0.252188 0.079154 0.369305 0.101062 0.019595 -0.031326 0.238616 0.166747 0.371598 -0.165946 -0.101046 0.231184 0.162130 -0.264339 0.066190 -0.041937 -0.182810 -0.540865 0.273708 -0.000380 0.028236 0.041297 -0.243058 -0.128760 -0.127664 -0.148908 0.141431 0.004281 -0.066102 -0.027257 0.064484 -0.210366 -0.464141 -0.320690 0.048586 0.016893 0.144149 -0.232465 -0.148103 0.195627 -0.279230 -0.043974 -0.106508 0.193522 0.101339 0.155159 0.019834 -0.138375 0.246978 0.206755 0.045086 0.350524 0.138629 0.151498 -0.135634 0.399109 -0.078857 0.115339 -0.191317 0.122802 0.139279 0.267352 -0.003189 0.545868 0.108633 -0.163879 -0.177157 -0.055023 -0.261385 0.053405 0.004132 0.428159 0.012560 0.093225 0.183568 0.209010 -0.231280 -0.045360 0.185713 0.068900 0.180606 -0.040266 -0.166175 0.066974 -0.087655 -0.168731 -0.086868
八卦 -0.122562 -0.168687 -0.196295 -0.052497 0.112541 0.295645 -0.366401 0.187486 0.176097 0.208769 0.342750 -0.094033 0.099078 -0.193856 0.126343 0.475292 -0.127986 0.179885 -0.137425 0.240905 0.106910 0.065859 0.084447 0.058343 0.144257 -0.377741 -0.095793 0.020314 -0.062663 0.080048 -0.492437 0.467105 0.363567 -0.477240 0.192845 -0.105528 -0.108131 0.263509 -0.004713 0.095790 0.092818 -0.166611 -0.127333 0.333183 -0.219513 -0.156647 -0.186469 0.068948 0.608979 0.147264 0.184073 -0.147730 -0.247163 -0.019218 -0.025189 -0.296815 0.084220 0.530406 0.276427 -0.016503 0.035740 -0.335990 0.108473 0.002754 0.057337 -0.029487 0.230788 -0.045140 -0.059187 -0.227259 -0.125439 0.028560 0.357737 -0.194966 0.047614 0.286579 0.026343 0.374103 0.169869 -0.245506 0.179225 -0.081508 -0.421778 0.262992 0.111973 0.590883 0.163500 -0.157131 -0.252997 0.191309 -0.391101 0.111398 -0.109795 -0.516088 0.190666 -0.030786 -0.184553 0.216554 -0.160935 0.160619 -0.017480 -0.009905 0.079705 -0.324464 0.168036 -0.282084 0.151376 -0.025805 0.009738 -0.021357 0.426016 -0.103505 -0.031309 -0.132592 0.428713 0.428012 0.352124 0.205185 -0.132875 0.578607 0.089689 0.009836 -0.169972 -0.069607 -0.292923 0.006064 0.211585 0.011461 0.252414 0.262058 -0.146008 -0.191563 0.154436 0.155175 0.162637 -0.107712 0.006548 -0.145162 -0.403444 0.376076 0.228037 -0.237583 -0.046004 -0.201971 -0.196788 0.024833 -0.230500 0.059198 -0.174358 0.070725 0.076421 0.147601 0.009089 -0.429658 -0.132601 0.102841 -0.073564 -0.139234 -0.147332 0.060940 -0.351482 0.179480 0.003731 0.174293 0.475751 0.477357 0.111299 -0.294488 0.136567 -0.396025 0.169717 -0.284684 0.118618 0.182326 -0.278375 -0.021106 0.324784 -0.183356 0.159234 0.051363 -0.176517 -0.030281 -0.053069 -0.039440 0.289547 0.242645 -0.267058 0.027041 0.179144 0.014551 0.049349 -0.224457 -0.049332 -0.104897 0.159905 -0.283022 0.194776 0.169002 -0.347573 0.484904
下 -0.434125 -0.069568 -0.078214 -0.061899 -0.326144 -0.218728 0.212814 -0.023472 0.149574 -0.314618 0.135915 0.206464 0.273952 -0.244355 -0.406583 0.049922 0.157905 0.258392 -0.061122 0.088782 0.107927 0.139054 -0.153373 0.000681 -0.056430 -0.468142 -0.449657 0.358813 0.033730 0.052485 -0.129028 0.023439 0.181547 0.134980 -0.040108 -0.070423 -0.252423 0.256131 0.305957 -0.371849 -0.109596 0.089218 -0.195562 0.192656 -0.282256 -0.160453 -0.439061 -0.075482 0.187414 0.309736 0.220945 -0.274015 -0.048163 -0.285717 0.267559 -0.096960 0.170459 -0.126924 0.033997 0.126960 0.315828 0.056169 0.085091 -0.039363 -0.005015 -0.039841 -0.321803 -0.180456 0.184536 -0.133410 0.020988 0.224969 -0.084267 -0.365728 0.369675 0.119975 0.031182 -0.221617 0.157875 0.279985 0.180395 -0.326466 -0.262450 0.041255 0.047184 0.199522 0.230015 0.012122 0.043844 -0.119206 -0.312864 0.262833 0.191067 0.291055 0.221149 -0.534583 0.432451 -0.103797 -0.172232 -0.097816 0.234156 0.112315 0.094059 -0.051722 0.130287 0.254796 -0.097002 -0.427839 0.001870 0.215021 -0.157734 -0.220109 0.211106 0.028982 0.209003 0.381102 0.027778 0.317204 0.145922 0.309281 0.060341 -0.312073 -0.350420 -0.190587 -0.015985 0.144978 -0.026533 0.246180 -0.042985 -0.305100 0.167914 -0.322160 -0.479464 0.147658 0.018612 -0.485559 -0.065423 0.346075 -0.129235 -0.080519 0.125883 -0.245653 -0.201667 0.025573 -0.220049 -0.160997 -0.224045 -0.428439 -0.153267 0.086695 0.017399 -0.377960 0.218699 -0.449161 -0.096338 0.050962 0.357527 -0.186251 0.040102 -0.001624 -0.234897 0.099265 0.187117 -0.059586 -0.096274 -0.136118 0.295354 0.084430 0.028126 -0.359415 0.081863 0.108527 0.277369 0.088652 -0.344838 -0.088934 0.046951 -0.038770 -0.057068 0.280768 -0.013895 0.048992 0.115422 -0.181999 0.158264 0.035835 -0.161966 0.267777 0.235241 -0.111256 -0.019299 0.126805 -0.043091 0.172196 -0.239255 -0.003711 0.260450 0.013567 -0.217526 -0.069560
餐廳 0.264606 0.140838 -0.086975 -0.119777 -0.200526 0.033852 -0.284764 -0.102151 -0.227501 -0.688316 0.135264 -0.174606 0.129422 0.245218 0.151801 0.177740 -0.156741 0.270024 0.024951 0.130290 0.195635 -0.054190 0.179285 -0.510975 -0.066258 -0.273296 0.142354 0.253788 0.041762 -0.280335 -0.152613 0.179287 0.395401 -0.008253 0.443571 -0.035727 0.054541 -0.137170 0.318502 -0.166478 -0.114368 -0.201937 0.145761 0.206990 0.280109 0.233067 -0.182636 0.033684 0.073233 0.111487 0.212727 -0.055723 -0.293706 -0.073887 0.288219 0.050296 -0.162529 0.202839 -0.164392 0.090928 -0.048753 -0.255976 0.321850 -0.033611 0.058823 0.026181 -0.517857 0.047726 0.313055 0.066388 -0.173639 -0.031269 -0.102466 0.364476 0.246657 -0.104388 -0.152163 0.187828 -0.048321 -0.159967 0.034762 -0.064337 -0.472844 -0.011852 0.089613 0.204317 0.192507 -0.043048 0.331130 0.213136 0.207119 0.674140 -0.005135 -0.169966 -0.120990 -0.074430 0.169855 -0.271259 -0.197677 -0.145031 -0.130306 0.157914 0.076347 -0.004319 0.135882 -0.137882 0.007071 -0.157277 0.086340 0.001370 -0.144833 -0.159406 0.136554 -0.218393 0.286093 -0.241830 0.141762 0.046560 0.138465 0.033848 0.367072 0.062973 -0.183841 -0.157705 -0.022908 0.063419 -0.232866 -0.255668 0.061631 -0.145487 -0.243387 0.304265 -0.353001 -0.220127 0.259492 -0.289472 0.083779 0.584887 -0.140771 -0.057530 0.370787 -0.064102 -0.418367 0.039549 -0.222942 -0.116173 -0.290403 0.425847 0.055323 -0.085631 -0.131474 -0.239506 0.149652 -0.052826 -0.001425 -0.089274 0.214915 0.219313 -0.246657 0.076221 0.038570 0.191169 0.310455 -0.117093 0.147877 0.193549 0.229581 -0.391943 -0.262939 -0.116067 0.063409 -0.233259 0.251793 0.139209 0.043053 0.029363 0.420838 -0.345096 0.272816 -0.047129 -0.100751 -0.148678 -0.020989 0.062601 0.042278 -0.178975 -0.308010 0.268506 0.258477 -0.023448 -0.166413 0.244284 -0.048794 0.061262 0.084285 -0.195354 0.184210 -0.037333 0.221465 0.317824
高 -0.029911 -0.257057 -0.175111 0.316925 -0.060876 -0.046964 0.133710 -0.178774 -0.009827 -0.135965 0.075595 -0.012834 -0.108210 -0.458432 0.013955 0.073191 0.282799 0.205036 -0.272867 0.248514 0.367286 -0.014395 0.081937 -0.319519 0.468686 0.166198 -0.044485 -0.090183 -0.261959 -0.278843 -0.198880 0.165338 0.431381 -0.039209 0.033790 -0.083061 0.301914 0.295750 0.524074 0.211747 -0.144219 -0.497169 -0.138781 0.223699 0.413305 -0.005905 -0.209487 -0.425561 -0.145707 0.210321 0.233717 -0.209658 0.048620 -0.211854 0.335107 0.415071 0.108361 0.109671 -0.068376 -0.003659 -0.079469 -0.370750 0.253043 0.098092 -0.238568 -0.156088 0.062341 -0.005048 0.062573 0.002127 0.424862 -0.116856 0.325887 -0.246743 0.045712 -0.209699 0.192959 0.109017 -0.147472 -0.200197 0.201395 0.022969 -0.135520 0.205800 0.171838 0.194471 -0.029482 -0.234457 0.125459 -0.005136 -0.304135 0.269905 -0.233347 -0.341390 0.044948 -0.083355 -0.010229 0.146104 -0.003878 0.253491 -0.148211 0.114368 0.051384 0.005592 -0.076157 -0.026332 0.043069 -0.051728 0.144395 0.484454 -0.457965 -0.105809 0.060488 -0.453419 0.537948 0.314108 0.222222 0.082005 -0.115456 0.685403 0.517435 -0.380677 -0.215333 -0.058387 -0.332383 0.649469 -0.152828 0.079180 0.012803 -0.110406 -0.062338 0.154201 0.231091 0.347039 0.282600 0.233945 -0.029290 0.088850 0.207408 0.075683 0.210511 -0.043144 0.001460 -0.028563 0.008125 -0.135065 -0.314392 0.131609 0.035912 0.115472 -0.339478 -0.705835 -0.041089 -0.049339 -0.288754 0.030523 -0.066564 0.140015 -0.411790 0.040073 -0.279566 0.002999 0.446213 0.207072 0.411278 0.069396 0.028168 0.010607 0.027350 0.002205 0.110145 -0.051879 0.151862 0.211993 -0.012437 0.052221 -0.110880 0.178804 0.056465 -0.136433 -0.136600 -0.233529 -0.139236 -0.007948 0.042344 -0.077854 0.045649 0.086026 0.315913 -0.189452 0.214421 -0.104336 0.086536 0.047958 -0.104811 -0.370243 -0.030974 0.172164 0.017561 -0.232621
日本 -0.207437 0.007392 0.033770 0.159298 0.241537 -0.039643 0.164219 0.209282 -0.031346 0.155861 0.174767 -0.177063 0.614014 -0.182493 0.125289 0.137474 0.258075 0.323482 -0.054932 0.113208 0.023679 -0.039059 0.038532 -0.390297 0.117041 -0.269750 0.184891 0.094932 -0.197210 0.341819 -0.391348 0.037841 0.092855 -0.229095 0.012781 -0.197255 -0.100182 0.248031 0.071733 0.030841 0.369628 -0.079071 -0.265407 0.246340 -0.091870 -0.052608 -0.415925 -0.068311 0.102401 0.055135 0.241155 -0.054102 -0.206895 -0.119832 -0.013910 -0.415154 0.434964 -0.084834 0.015191 0.245466 0.221407 0.113847 0.332949 0.142868 0.276592 -0.127468 -0.418350 0.282826 -0.124388 -0.062874 0.122593 -0.452821 -0.012135 0.050688 0.221050 -0.182774 0.033986 0.288474 0.165353 -0.235123 0.108118 -0.122069 -0.104633 0.234330 0.010043 0.328910 0.128303 0.024637 -0.146193 0.158226 -0.391739 0.419556 0.209769 0.152520 -0.007515 0.089337 -0.160609 0.104054 -0.048585 -0.146789 0.073373 -0.060578 -0.173161 0.144888 -0.106646 0.020985 0.091457 0.479479 0.161689 -0.186160 0.326756 0.044586 -0.052882 -0.058786 0.125138 0.127041 0.111409 0.109178 -0.327675 0.263479 0.382387 0.167374 -0.237044 -0.381060 -0.277651 0.127739 -0.280870 0.020306 -0.004733 -0.140949 -0.377242 0.164032 0.324136 0.026446 0.347676 -0.041099 0.315558 -0.035408 -0.201145 -0.291162 0.253199 0.052379 -0.372156 -0.108592 0.018399 -0.166552 -0.034731 0.008081 -0.272898 -0.454156 -0.311218 -0.188654 -0.250154 -0.449460 -0.163106 -0.287607 0.117953 -0.141781 -0.039053 -0.058424 -0.296600 0.090318 0.331113 0.300721 -0.039219 0.323268 -0.083286 -0.330197 -0.217655 0.149305 0.191201 -0.255740 0.069416 -0.036076 -0.156005 0.029341 -0.095881 0.026489 -0.191116 0.051499 -0.320808 -0.473358 0.193043 0.099946 0.247954 -0.153063 -0.219988 -0.148664 0.070036 -0.148951 -0.037984 0.078098 0.181673 0.225100 -0.527326 -0.084653 0.049495 -0.176947 -0.252890 -0.026936
家 -0.057085 0.310090 -0.012225 0.029817 -0.316350 -0.210474 -0.271241 -0.073542 -0.343236 -0.187485 -0.132694 -0.234293 0.002109 0.220838 0.359458 0.037722 0.073934 0.147596 0.468047 0.278917 0.245896 0.064110 0.143313 -0.365234 -0.166586 0.165096 0.052684 0.036623 -0.280784 -0.042016 -0.181969 0.195374 -0.060421 -0.047958 0.286438 -0.090632 -0.102245 -0.343833 0.283184 0.019152 -0.146549 -0.117234 0.254895 0.157059 0.103787 0.093211 0.073837 -0.278171 0.260869 0.388683 0.058759 -0.353251 -0.063079 -0.252525 0.170827 -0.069602 -0.060415 0.019887 0.328236 0.261955 0.106723 -0.464931 0.055904 0.256782 -0.280254 -0.224136 -0.221762 -0.058798 0.412963 -0.184617 0.266577 -0.364928 0.086295 -0.154590 0.128743 0.066910 0.211713 0.024660 -0.239392 -0.332676 0.219625 0.128293 -0.430257 0.080835 0.021890 0.185766 -0.064537 -0.073648 0.068373 0.226280 -0.012779 0.449831 0.064041 0.173365 0.031834 0.059314 0.122189 -0.015856 -0.067163 0.249070 0.070099 -0.031645 -0.030868 0.175967 -0.082335 0.035074 0.214022 -0.117815 0.101626 -0.183682 0.274224 -0.177842 0.154048 0.045949 0.347715 0.292994 0.071384 0.083986 0.093890 0.084926 0.203688 -0.408200 -0.113955 -0.454517 0.174060 0.054036 -0.102001 -0.176751 -0.003628 0.132252 -0.260465 0.054978 -0.114149 0.001025 0.093950 -0.193836 0.373999 -0.052075 -0.346965 -0.184513 0.590133 -0.156901 0.148605 -0.214550 0.010196 -0.466848 0.242290 0.250128 -0.445772 0.063160 -0.229261 -0.170189 -0.342834 -0.364497 0.337483 0.003311 0.122050 -0.254454 0.013223 0.165181 0.399531 -0.158999 -0.156499 0.128633 0.164616 0.202543 0.246822 -0.184753 0.188531 -0.032177 -0.078839 -0.561877 0.419770 0.104798 -0.154683 0.023736 0.260547 0.020480 0.085109 0.142223 0.000392 -0.381690 0.142932 -0.244940 0.128196 -0.021005 -0.278724 -0.152356 0.147003 0.263547 0.197881 0.346717 -0.217736 -0.311779 -0.032673 -0.277058 -0.001199 -0.137307 0.266781 0.380195
錢 -0.083600 -0.194386 0.074314 -0.043096 0.363296 -0.029333 -0.060047 0.033474 0.348262 0.093994 -0.159786 -0.197373 0.043811 -0.004622 -0.069438 -0.144756 0.181674 0.208735 -0.101819 0.104710 0.495672 0.204419 -0.078689 -0.228792 -0.020243 -0.105371 -0.114778 0.177393 -0.164167 -0.082707 -0.495841 0.036252 0.442882 0.066444 0.387520 -0.095920 -0.144528 -0.040698 0.351244 -0.011702 -0.145801 -0.118982 0.115275 0.273427 0.186642 0.108998 0.045779 -0.179105 0.568577 0.496367 0.208036 0.304379 -0.162744 0.081821 0.079850 0.053198 0.140671 0.066964 0.400680 -0.017324 0.577603 -0.212877 -0.034518 -0.123883 0.131775 -0.287786 0.004282 0.066902 0.133896 -0.217433 0.092349 0.006399 0.146351 0.036992 0.061891 0.055305 0.330854 0.207273 -0.517850 -0.341689 0.131976 0.035512 -0.219967 0.108185 0.257846 0.270974 0.255481 0.038524 0.213542 0.270599 -0.237395 0.098587 -0.131523 -0.057061 -0.074052 0.058438 0.079304 -0.108220 -0.040079 0.449707 0.021249 0.119754 0.063736 -0.015288 0.016628 -0.305310 0.222642 0.065316 -0.173236 -0.237872 0.357710 0.003321 0.089254 -0.017475 0.407220 0.223567 -0.043785 -0.107839 -0.007877 0.188196 0.205783 0.289692 -0.330951 -0.238444 0.076566 0.259794 -0.081767 -0.485859 -0.193938 0.025806 -0.075936 0.224515 -0.085938 0.496652 0.333965 -0.111068 0.319324 0.208096 0.111196 -0.242744 0.350834 -0.380974 0.090102 -0.351323 0.071538 -0.043969 -0.257812 -0.296995 0.112347 0.198043 0.036581 -0.398733 0.138113 -0.011741 0.136933 -0.189449 -0.319120 0.061835 -0.245404 -0.277753 -0.152101 0.417840 0.107771 -0.009737 0.021549 0.291589 0.242683 0.215035 0.309583 -0.054412 -0.120003 -0.171195 0.338668 -0.083687 0.114831 0.092743 0.258749 0.031886 0.128989 -0.030160 0.009753 -0.071779 0.148801 -0.296554 0.117561 0.255661 -0.277507 0.030795 -0.005302 0.074525 0.361671 -0.237646 -0.113279 -0.019337 -0.272876 -0.424349 0.272280 0.258447 0.124085 0.071299
噓 -0.185429 -0.228025 0.051738 0.018843 -0.314813 -0.073016 -0.114068 0.044093 -0.100132 -0.070447 -0.065731 0.247487 -0.049508 0.311261 0.100335 0.650786 0.079476 0.111225 -0.135929 0.166295 0.067911 0.357476 -0.194846 -0.158619 -0.113744 -0.238808 -0.282604 0.188463 0.311954 0.325395 0.009890 0.081452 0.161050 -0.487242 0.078575 0.154591 -0.100376 0.185121 0.226778 0.113141 -0.255081 0.120515 -0.196355 0.176294 0.219063 0.054302 0.069518 0.196987 -0.017258 -0.012637 0.370779 0.336546 0.214169 0.028509 -0.047112 -0.042212 -0.224655 0.355275 -0.214808 -0.135727 0.422322 -0.189108 -0.041423 0.379658 0.159602 0.064881 0.002076 -0.082108 0.077219 0.309997 0.010412 -0.157981 0.352312 -0.238821 -0.102907 0.336305 0.519585 -0.031751 -0.005017 -0.102827 0.166521 0.039668 0.204911 0.298790 0.236270 0.056486 0.173814 -0.162819 0.127922 0.175932 -0.268334 0.307657 -0.035078 0.077165 0.053427 -0.310603 0.033867 -0.090757 -0.019180 0.266146 0.052314 0.205693 0.138932 -0.178809 0.016109 -0.256470 0.184183 -0.106675 -0.056730 0.313083 0.333621 -0.136165 0.090125 0.022799 0.516484 0.393720 0.035810 0.120041 -0.250992 -0.130606 0.163869 -0.123257 0.073446 -0.496308 -0.132986 -0.136342 -0.220595 -0.098773 -0.068558 0.314642 0.101613 -0.304641 0.186989 0.206977 -0.042258 0.144612 0.386032 -0.101200 -0.010980 -0.224386 0.272874 -0.064442 -0.292530 -0.066408 -0.097020 -0.503656 -0.115833 -0.512089 -0.121736 0.731343 -0.352217 -0.089478 -0.166302 -0.253894 -0.160156 -0.133181 -0.247731 -0.218474 0.032883 -0.000572 -0.015096 -0.000216 0.046269 0.330693 0.573386 0.286459 0.239596 0.326477 0.121212 -0.457091 0.433797 -0.221720 0.070249 -0.276058 -0.109143 0.007924 0.010923 -0.029836 0.205944 0.291959 -0.011423 0.065197 0.090190 0.268754 0.031438 0.041728 -0.193326 0.341121 0.231792 0.179673 0.162376 -0.342391 0.138742 -0.139540 0.101938 0.016143 0.339750 0.288764 -0.185307 0.131109
地 -0.006793 0.007736 0.255523 0.208612 -0.132175 0.199424 -0.134621 0.164556 -0.020374 -0.371489 0.327539 0.160769 0.008932 -0.409954 -0.205128 -0.015996 0.571403 0.515209 -0.141377 0.163367 0.032560 0.165742 -0.032829 -0.224104 0.063136 -0.116616 -0.254490 0.252165 0.210547 -0.331087 -0.078749 -0.253118 -0.145047 0.221398 -0.305454 0.111494 0.249180 0.341100 0.429555 -0.333768 0.160930 -0.086423 -0.180729 0.157147 0.274820 -0.208661 -0.032093 -0.164829 0.337425 0.150712 0.229176 -0.314667 0.122697 -0.439253 0.181240 0.642034 0.537035 0.024588 0.164089 0.082870 0.133715 -0.063855 0.197734 0.104202 0.209839 -0.202082 0.013609 0.113798 -0.092975 -0.613831 -0.313979 -0.148354 0.409677 -0.180706 0.145664 0.327427 0.161097 -0.334869 0.240439 -0.327317 -0.340071 -0.221714 -0.034267 0.322304 -0.228522 0.359440 -0.449633 -0.267079 0.046648 0.035363 0.045230 0.328255 -0.085615 0.243774 0.089839 -0.114110 0.073255 -0.188923 -0.146325 0.043801 0.171489 -0.065595 -0.003310 0.021940 -0.061322 -0.270702 0.127041 0.003449 0.217421 -0.256282 0.005493 -0.246474 -0.047120 -0.496248 0.232165 -0.024435 -0.247045 0.181284 0.003499 0.447740 0.153981 0.079059 -0.068278 -0.265364 0.217844 -0.001913 0.136792 0.221527 0.117678 -0.381951 -0.447242 -0.116618 0.048868 0.283294 0.194439 -0.118816 0.114567 -0.370255 -0.070184 -0.146106 0.440174 -0.053318 0.080890 0.169729 0.304121 -0.230357 0.751362 0.187751 0.026263 0.094397 0.203343 -0.121080 0.149001 0.042997 -0.103947 -0.442294 0.132957 0.123428 -0.205682 -0.087844 -0.122981 0.183693 -0.094862 -0.263507 -0.156363 0.351489 0.145945 -0.240813 0.241182 -0.294075 -0.274393 0.121945 0.207883 -0.012254 0.003737 -0.002341 0.206764 -0.180577 0.027203 0.231932 0.065351 0.014245 -0.018713 -0.109164 0.509484 -0.021637 -0.031910 0.075223 0.049044 -0.092994 -0.052300 0.198703 0.380642 0.160660 -0.403755 0.047655 -0.103674 0.155341 0.043957 -0.304445
台北 0.187117 0.050420 -0.452911 -0.033334 0.304454 -0.030735 -0.273580 0.112685 -0.276347 -0.105468 0.279013 0.288909 -0.040497 0.021081 0.181356 0.101405 -0.255672 0.075549 -0.017877 -0.011838 0.045679 0.393489 -0.005264 -0.417458 0.299664 -0.246080 -0.389130 0.351968 -0.281173 -0.114105 -0.141395 0.156534 -0.307761 0.196081 0.135111 -0.185011 0.206104 -0.166901 0.426397 -0.103694 -0.489182 -0.203371 -0.298112 -0.014172 0.036168 0.110851 -0.332521 -0.162258 0.241286 0.130720 0.427832 -0.056399 -0.288257 -0.111005 0.299335 -0.075136 0.123739 0.024027 0.108051 0.194941 0.189609 -0.442215 0.245249 -0.107737 -0.319796 0.154940 -0.130608 0.401817 -0.231679 -0.566061 -0.046561 -0.072784 0.692173 -0.293041 -0.085407 -0.000340 0.067608 -0.031958 0.003783 -0.277723 -0.073085 0.142728 -0.424265 0.082506 -0.079615 -0.248574 0.032288 -0.050621 -0.076186 -0.146911 -0.223456 0.537422 0.308313 0.171920 -0.183012 0.076345 -0.125547 0.208488 -0.014479 0.108242 0.109889 -0.137754 0.330009 0.260469 0.078249 -0.144036 0.268595 0.335916 0.162739 0.226043 -0.044830 -0.308093 0.001003 -0.343507 0.286614 0.260904 0.123838 0.118674 -0.055098 0.258653 0.176645 0.094443 0.021438 0.022449 -0.296639 0.218397 -0.286488 0.045518 -0.140981 -0.090517 -0.240344 0.054663 -0.184930 0.176186 0.145536 -0.086204 0.076414 -0.016658 -0.097386 -0.050634 0.312088 -0.080827 -0.135973 -0.206665 0.062425 -0.163325 -0.036935 -0.224589 -0.311285 -0.058848 -0.661892 -0.215277 0.122181 -0.305629 -0.030915 0.179252 0.282478 -0.085462 -0.299467 -0.112000 0.016358 0.055691 0.097687 0.045755 0.291382 0.243797 -0.030728 0.127563 0.055733 0.277794 -0.346901 -0.358984 0.213090 -0.167259 -0.151421 0.171277 0.170287 -0.210490 -0.159432 0.196380 0.049739 -0.402377 0.390515 -0.349366 0.488926 0.254060 -0.097057 -0.101606 0.184665 0.166736 0.202948 -0.479797 -0.060641 -0.280503 -0.354721 0.077964 0.154499 0.013961 -0.147662 0.168640
電話 -0.259276 0.506855 0.067298 0.036144 0.220252 -0.106560 0.083498 -0.178700 -0.411752 -0.575799 -0.118407 0.224146 0.079124 0.030511 0.110128 0.350038 -0.080079 -0.202221 0.199115 0.314808 0.305504 -0.127537 -0.021280 -0.406784 -0.159894 0.040484 -0.263981 -0.074811 0.134006 0.033040 0.105409 0.373789 -0.306341 -0.303202 0.293270 -0.054034 -0.266755 0.426798 -0.034143 -0.284957 0.058352 -0.105948 -0.300014 0.323768 0.500591 0.352122 0.058540 0.218760 0.254546 -0.049028 -0.120489 -0.071076 0.008238 -0.162737 0.270524 -0.055580 0.418398 0.231326 0.132393 -0.144180 0.157806 0.180476 -0.516654 0.083912 0.236038 -0.011343 -0.011886 0.053923 0.202611 -0.511764 0.233646 0.278352 0.450245 -0.080439 0.487237 -0.218452 0.192933 0.237024 -0.217828 0.255616 -0.124706 0.020955 -0.334551 0.260993 -0.406197 -0.128781 -0.204426 -0.045826 0.160736 -0.008592 0.390555 0.356987 0.266321 0.235528 0.156364 0.301597 -0.013392 -0.164435 -0.042208 0.648002 -0.279848 -0.144574 0.211077 0.012325 -0.023878 -0.324862 0.186356 -0.198642 -0.016395 0.079253 -0.130854 0.027470 -0.015345 0.153165 0.384597 0.234335 0.036667 0.220245 0.444511 0.278648 0.173371 0.097141 0.184016 -0.332179 0.097468 0.300042 -0.277155 -0.086798 0.106119 -0.011274 -0.176307 0.142333 -0.036192 0.095514 -0.126434 0.027300 -0.013371 0.692837 0.135205 -0.051030 0.978270 -0.097035 0.113337 -0.272140 0.138420 -0.132528 0.032393 0.021912 -0.021567 0.080904 -0.041458 -0.167321 0.024869 -0.118498 -0.098679 -0.159126 -0.006487 -0.213170 -0.080845 0.014225 0.162653 0.560239 0.073513 0.211262 -0.031688 0.325866 0.190091 -0.198852 -0.148914 -0.313682 0.193986 -0.120170 0.450519 0.156945 -0.185252 -0.174281 0.554381 0.428018 0.250410 0.081393 0.398120 0.025446 -0.299423 -0.299297 -0.115988 -0.296045 0.318438 -0.195646 -0.216412 0.050907 0.005373 0.129976 -0.098910 0.237667 0.114629 0.432657 -0.018789 -0.004938 0.088453 0.093513
寫 -0.210866 -0.136182 -0.200915 0.287825 0.039129 0.083622 0.151529 -0.131521 0.319584 -0.420002 0.289414 0.336351 0.130871 -0.198608 0.158436 0.212351 0.252348 -0.030231 0.080598 0.114501 0.120069 -0.371648 -0.050719 -0.042557 -0.143241 -0.173676 -0.009978 -0.279070 0.090487 0.306584 -0.033980 -0.022007 0.134014 -0.093643 -0.234913 0.185475 -0.073207 0.116857 0.281768 -0.035875 -0.082129 0.218270 0.266167 0.295830 -0.164957 0.477491 -0.337897 -0.136681 0.367480 0.271884 0.274360 0.039628 -0.232674 -0.466392 0.113925 -0.173618 -0.108389 0.241411 0.120210 -0.179103 0.331381 0.143661 0.298107 0.108298 0.432265 0.054492 0.090722 0.038972 0.143208 0.127615 0.192664 -0.163613 0.064626 0.015970 -0.133173 0.461921 0.269585 -0.065474 0.110521 -0.268072 0.055736 0.202870 -0.117649 0.133159 0.090290 0.176734 -0.064026 0.254544 -0.206008 0.141287 -0.164418 0.198558 0.106489 0.219175 -0.003899 -0.504785 -0.059483 0.213349 0.294255 0.023505 -0.000824 -0.234182 0.078182 -0.139733 0.044246 -0.303553 0.127826 -0.042195 -0.157882 0.151686 0.260243 0.053071 0.067268 0.033458 0.490752 0.286958 0.039891 0.425890 0.350370 -0.022396 0.124875 0.173722 -0.117157 0.017239 -0.206988 0.178376 -0.388169 0.035034 -0.244821 0.031833 -0.095612 0.136692 0.154629 -0.135308 0.311321 -0.136901 0.115795 0.316148 -0.015784 -0.495649 0.387853 -0.268718 0.183378 -0.409829 0.018806 -0.180702 -0.040057 0.001512 -0.146601 0.054253 -0.031775 -0.006636 -0.265537 -0.016170 -0.290654 0.019954 -0.118329 0.004610 -0.005513 0.308506 -0.322451 0.211971 0.127081 -0.191718 0.354590 0.087344 -0.012000 0.281830 -0.040071 -0.239827 0.321453 -0.182215 0.337551 0.082911 -0.198947 -0.063167 0.274768 -0.054062 -0.104392 -0.182373 -0.486360 -0.243320 -0.284082 -0.085941 0.361316 0.190319 -0.178229 0.036882 -0.083576 0.203885 0.148566 0.072760 -0.179909 -0.221054 0.202818 -0.200098 0.083026 0.226167 0.189097 0.244651
女 -0.178975 -0.077978 -0.537701 0.029041 0.172797 0.030737 -0.007673 0.061489 0.134265 -0.536330 0.062537 0.174560 0.234607 -0.512537 -0.202911 0.239959 0.169971 0.320813 -0.193394 0.476277 0.307931 0.025976 0.481824 -0.347900 -0.077985 -0.277341 -0.098202 -0.193721 -0.065249 -0.143976 -0.209327 0.108232 0.009750 -0.031087 0.281430 -0.050718 0.206341 -0.142030 -0.048789 -0.171541 -0.023461 -0.334490 0.120587 0.036850 0.246028 -0.118705 0.051800 0.250439 0.353422 0.338311 -0.017257 0.202485 -0.045206 -0.140101 0.180603 -0.091034 -0.052207 0.547730 -0.063187 -0.062561 0.201284 0.128576 0.126250 0.260378 0.226514 -0.490641 0.051734 -0.242923 0.242901 -0.257491 -0.031441 -0.353203 0.248123 -0.090560 0.004320 -0.050455 0.254416 0.322003 0.272264 0.195379 0.239021 -0.206317 0.061325 0.200810 0.109241 -0.020498 0.288023 0.349654 0.121896 0.007329 0.083801 0.223848 0.222642 -0.292542 -0.420529 -0.501249 0.068492 -0.181846 -0.250394 -0.012906 -0.229186 0.092695 0.273959 0.097609 -0.478158 -0.361942 -0.032811 -0.119155 0.053235 -0.310478 0.182490 0.000165 -0.358088 0.503447 0.446624 0.275738 0.349745 0.033134 0.007518 0.294352 -0.050654 0.280951 -0.038618 0.084876 0.115472 0.063290 -0.314695 0.244638 -0.095610 -0.220732 -0.161226 0.062156 0.069253 0.062814 0.257628 -0.115368 0.312714 0.009930 -0.196790 -0.036033 0.042305 -0.130643 0.175725 -0.114055 0.025154 -0.343908 0.090602 -0.224922 0.224580 -0.300921 -0.001492 -0.446427 -0.080570 -0.617842 0.092601 -0.430815 0.446477 0.104954 -0.022041 0.323742 -0.039660 0.246733 0.406172 0.297229 0.248964 -0.050702 0.371064 0.120031 0.316145 -0.410371 0.099026 -0.182494 -0.157591 -0.075724 0.440994 0.142667 0.469396 0.074297 -0.092524 0.126982 -0.335174 -0.186102 0.335668 -0.011755 0.304795 -0.181830 -0.023119 0.038865 -0.208316 0.322174 -0.009512 0.038516 -0.380266 0.027506 0.141747 -0.084437 -0.013538 0.031601 -0.014850 -0.037025
聽 -0.156262 0.018082 -0.067221 0.223910 0.024115 0.124771 -0.530446 0.056035 -0.061329 -0.049413 0.173379 0.228894 0.059666 0.048691 0.218869 -0.047234 0.125185 0.210546 -0.428653 -0.147931 0.270400 0.101241 0.016216 -0.130065 0.176850 -0.205232 0.251063 -0.027314 -0.107521 0.029310 -0.218197 0.267199 -0.271430 -0.062948 0.037699 0.186652 -0.121699 0.248557 0.157493 -0.685996 -0.235885 0.265560 0.037737 0.070931 0.356336 0.101456 -0.456450 -0.036984 0.081331 -0.375071 -0.065655 -0.200526 0.354640 -0.319616 0.228150 -0.067140 -0.048705 0.201493 0.339944 0.011290 0.282978 0.205600 -0.202360 0.263942 -0.033166 0.303210 -0.191904 0.063619 0.133252 -0.136357 0.187304 -0.283838 0.141527 0.154278 0.300037 -0.219250 0.207375 0.323926 -0.139874 0.055793 0.218404 -0.529159 -0.562275 0.296147 -0.033243 0.181199 -0.076175 0.129415 -0.370017 0.198264 -0.109945 0.072891 -0.266449 0.009682 -0.011971 0.053729 -0.142087 0.388091 -0.309307 0.310601 -0.116994 -0.178003 -0.040233 0.139937 -0.046991 -0.442498 0.019255 0.131777 -0.031663 0.150171 0.410547 -0.149365 -0.057416 -0.017641 0.395282 -0.061623 0.169275 0.282144 -0.136094 0.380692 0.318043 -0.089754 -0.079374 -0.050932 -0.022390 0.134159 -0.158162 -0.021731 0.222021 -0.325777 -0.145658 -0.042755 0.503671 -0.034271 0.305322 0.219578 0.164223 -0.054561 -0.123635 -0.121908 0.657700 -0.462562 -0.051939 -0.406078 -0.430047 -0.309072 0.053392 -0.304947 -0.052066 -0.131367 0.256623 -0.029372 0.019199 -0.288367 0.002478 0.081652 0.049766 0.206598 0.041895 -0.145871 -0.138425 0.322612 -0.201120 -0.119095 0.445908 0.189630 0.096521 0.058602 0.170575 -0.293213 0.462540 -0.109822 0.347218 -0.129462 -0.044333 -0.349310 0.275027 -0.104091 -0.085710 -0.115594 0.070029 0.029029 0.181969 -0.063288 -0.002634 0.146260 -0.198892 -0.013838 -0.183765 -0.224158 0.151047 -0.315914 0.254919 0.021004 0.305382 -0.111200 0.240985 0.361388 0.252468 0.191605
女友 0.173296 0.277506 0.210463 -0.081548 -0.090732 0.104972 -0.054347 0.340267 -0.328490 -0.402335 -0.049406 0.337461 0.131278 -0.258892 -0.057883 0.206054 0.196973 0.262243 -0.066125 -0.103341 0.068234 0.053729 0.201106 -0.401477 -0.018737 -0.078392 -0.021059 0.366762 -0.147234 -0.038747 -0.044000 0.173300 -0.157355 -0.005001 0.228949 -0.238549 0.071104 -0.023055 -0.008929 -0.213927 0.247892 -0.463869 -0.051522 0.069423 0.252151 0.006867 0.059039 0.102190 0.247082 0.276629 0.376458 0.449931 -0.114779 -0.007459 -0.071083 -0.003864 0.283103 0.421786 0.007579 -0.094825 0.154473 -0.072258 -0.015942 -0.144943 0.043034 0.056260 0.177843 -0.050767 0.172916 -0.250236 0.230067 -0.284112 0.131697 -0.470366 0.273154 0.241830 0.339073 -0.034677 -0.058206 0.074811 0.055849 -0.435604 -0.173320 -0.203577 -0.106390 0.013879 0.190465 0.241686 -0.134248 0.564949 0.187516 0.378078 -0.044220 -0.064503 -0.202324 -0.117825 0.027181 -0.198856 -0.485231 0.032015 0.044126 -0.107179 0.194387 -0.096374 -0.149800 -0.222319 0.117890 -0.224023 -0.077740 -0.180131 0.356791 0.101237 0.105596 0.202456 0.370010 0.267939 0.238691 0.178768 -0.321926 -0.103657 0.018834 0.564704 -0.484745 -0.077836 -0.017790 0.169919 -0.350257 0.009447 0.145132 -0.176269 -0.105496 -0.054354 -0.181344 0.141843 -0.173062 0.024662 0.121733 0.096661 0.008952 0.293845 0.150742 -0.110518 0.128490 -0.392001 -0.164609 -0.284408 -0.183303 -0.031101 0.232355 0.016294 -0.193262 0.003940 0.012293 -0.209299 -0.133184 0.047554 0.290086 0.203265 0.049848 0.338488 0.027706 0.171603 0.216407 -0.207719 0.179216 0.038361 -0.049667 -0.169899 0.295103 -0.151265 -0.033439 -0.045044 0.309783 0.486967 0.119914 -0.093666 0.349811 0.253793 0.044372 -0.047363 0.031053 0.079275 0.047795 -0.084849 0.250502 -0.016533 0.133761 0.275237 0.025917 -0.074665 -0.067413 -0.052329 -0.137682 0.107449 -0.167231 0.255150 -0.043648 0.176373 -0.263360 0.196030
男 -0.085780 -0.068804 -0.228980 0.032877 0.040967 -0.078350 0.010942 0.297882 -0.055239 -0.673916 0.184357 0.294360 0.121614 -0.342299 -0.128300 0.265607 0.066400 0.319213 -0.124546 0.265457 0.302292 0.067582 0.366192 -0.350538 -0.118599 -0.238075 0.054787 0.034994 0.058801 -0.100312 -0.162421 0.135340 -0.347915 0.104978 0.156320 -0.023877 0.108311 0.020335 0.133806 -0.022618 -0.112396 -0.522971 0.033705 0.128777 0.258369 -0.068157 0.227898 0.077232 0.400090 0.335067 -0.192066 0.253641 -0.023026 -0.101755 0.079370 -0.039166 0.212811 0.474720 0.102299 -0.117816 0.218679 -0.280541 0.107410 0.294586 0.215520 -0.355227 0.085944 -0.246419 0.008811 -0.126750 0.031684 -0.471775 0.247873 -0.309589 0.048756 0.066188 0.109531 0.246476 0.260839 -0.009915 0.293619 -0.293950 0.027947 0.422048 -0.017913 0.076901 0.217971 0.359371 0.019407 -0.079808 0.240038 0.250493 0.170078 -0.251725 -0.173310 -0.457442 0.061675 -0.055349 -0.257469 0.094407 -0.284167 -0.112277 0.221162 0.064142 -0.465572 -0.295732 -0.037414 -0.379811 -0.075000 -0.050461 0.192439 0.098453 -0.097900 0.273738 0.223655 0.247792 0.496720 0.012424 -0.092771 0.203156 -0.133394 0.330320 -0.102454 0.011144 -0.048130 0.007503 -0.483183 0.263784 -0.003968 -0.299090 -0.102800 0.074046 0.095554 0.108046 0.039695 0.137911 0.141090 -0.009624 -0.085369 0.360093 -0.225654 -0.076973 0.355141 -0.245819 0.043100 -0.141514 -0.119139 -0.091451 0.132019 -0.252168 -0.051050 -0.313993 -0.130266 -0.512179 -0.063695 -0.443501 0.492105 0.069203 0.147267 0.203006 -0.100112 0.287719 0.192821 0.308522 0.182841 -0.168559 0.435645 -0.078236 0.506246 -0.171726 0.171177 -0.148640 -0.245212 -0.121518 0.279992 0.170652 0.363387 0.220915 -0.065496 0.231716 -0.217140 -0.201987 0.029382 -0.136849 0.427141 -0.292569 -0.246739 -0.089097 -0.374044 0.308901 -0.072823 0.061958 -0.175073 -0.003177 0.116185 0.100016 -0.102427 0.122133 -0.171550 -0.172238
男生 0.003161 0.296689 -0.033929 0.309642 -0.028755 0.207696 -0.058648 -0.146167 -0.125889 -0.443278 -0.148579 0.103529 0.113789 -0.292414 -0.140497 0.046045 0.206883 0.124727 -0.195749 0.217434 0.401017 -0.071928 0.071009 -0.209693 0.071233 -0.357288 0.207833 0.096267 0.105682 -0.172397 -0.354879 0.272335 0.220503 -0.194708 0.085294 -0.187512 0.093317 0.149849 0.328188 0.043896 0.234237 -0.321160 0.190758 0.459955 0.129615 0.061032 0.039057 0.045715 0.152243 0.373719 0.013456 0.115813 -0.309797 -0.202714 -0.063396 -0.154412 0.103560 0.090893 -0.110345 0.090196 0.157445 -0.340335 -0.373447 0.209004 0.209525 0.051455 -0.202641 0.136647 -0.087819 -0.007013 0.344623 -0.066340 0.403478 -0.219904 -0.173259 0.012369 0.421350 0.153766 -0.004953 0.122992 0.233890 -0.046324 0.032763 -0.236466 0.159601 0.191693 0.023273 0.286696 -0.117731 -0.008288 -0.111176 0.302960 -0.323514 -0.197730 -0.299489 -0.282035 -0.194011 -0.428398 0.031007 -0.032259 0.228428 -0.521930 0.373124 -0.027342 -0.170786 0.039566 0.011205 -0.274678 -0.189718 -0.091003 0.403863 0.050288 -0.148466 0.231938 0.022349 0.244094 0.235202 0.101932 -0.039337 0.187622 0.044089 0.388767 -0.223423 -0.056285 0.222649 0.159019 -0.412884 -0.027472 0.235172 -0.248803 -0.447212 0.288258 0.054415 -0.020634 -0.032813 -0.189217 -0.048003 -0.097131 -0.057987 0.251565 0.005217 -0.109421 -0.059808 0.069262 -0.291381 -0.545614 -0.287576 -0.004252 0.062986 0.167811 -0.230976 -0.246459 0.188284 -0.299648 -0.086647 -0.005313 0.180187 -0.013544 0.022142 -0.035515 -0.228143 0.145729 0.328785 0.069809 0.346926 0.014796 0.148776 -0.124999 0.284988 -0.015297 0.088319 -0.239086 0.068644 0.171858 0.108103 -0.094143 0.577681 0.196307 -0.158761 0.003147 -0.050808 -0.235515 -0.137141 0.200319 0.432407 -0.110216 0.034850 0.144523 0.063793 -0.230056 -0.123941 0.248256 0.023659 0.232994 -0.118555 0.009835 0.032410 -0.113536 -0.108566 -0.131979
中國 -0.143560 0.084144 0.016633 0.338397 0.220770 0.082819 0.026821 0.207065 -0.022229 -0.075668 -0.030044 -0.075909 0.179946 -0.174425 0.181089 0.052160 -0.235970 0.285457 0.048787 0.226136 -0.094581 0.147167 -0.043218 -0.386656 0.099520 -0.178026 0.015676 0.196353 -0.295015 0.310492 -0.188961 0.213453 0.147651 -0.007159 0.092545 -0.108601 -0.258624 0.184375 0.212782 0.311709 0.282210 -0.157235 -0.059790 0.170813 0.029266 -0.064547 -0.376040 -0.047347 -0.061228 0.085694 0.371745 -0.191038 -0.205091 -0.211127 0.102217 -0.396684 0.135555 -0.074737 -0.001084 0.111043 0.192737 0.027567 0.240223 0.289421 0.427007 -0.042368 -0.247316 0.263362 -0.049646 -0.353335 0.322449 -0.038710 0.021592 0.029764 0.097669 -0.256113 0.444032 0.170043 0.233150 -0.567295 -0.201807 -0.125447 -0.232685 0.111585 -0.197958 0.184222 0.085805 0.194159 -0.172520 -0.316989 -0.059070 0.264663 -0.106491 0.148320 0.290296 -0.051913 0.096859 -0.112646 0.213818 -0.024072 -0.219756 0.184356 0.080213 0.151790 0.062515 -0.038995 0.066563 0.108527 0.066691 0.013365 0.548105 0.295029 -0.332016 -0.207519 0.255969 0.113598 0.064597 0.284029 -0.222447 0.196953 0.155753 0.031860 -0.087034 -0.188380 -0.164022 0.106323 -0.422390 -0.074097 -0.043207 -0.044590 -0.067361 0.228393 0.279427 0.171406 0.462892 0.095436 0.204662 0.030692 0.205876 -0.291641 0.138316 -0.052632 -0.203747 -0.385933 0.098200 -0.075814 0.072293 -0.286048 -0.119322 -0.210599 0.147879 -0.298974 -0.102171 -0.273926 -0.259673 -0.345943 0.087971 -0.349038 0.082762 0.104009 -0.224267 0.090512 0.292458 0.187073 -0.172634 0.328303 0.052239 -0.253128 0.156105 -0.132010 0.275715 -0.474970 -0.058324 -0.040543 0.114276 -0.101440 0.063495 -0.035855 -0.204772 0.244624 0.023521 -0.271140 0.151127 -0.004782 0.040321 -0.096707 -0.274314 0.009430 0.030115 0.292242 0.252650 0.293372 0.125968 0.159063 -0.674403 0.164602 0.080666 0.315821 -0.061826 -0.054610
工作 0.326325 -0.118147 0.120019 -0.029326 0.002848 -0.136825 0.252009 -0.127012 -0.130373 -0.254181 -0.145152 0.266396 -0.060295 0.113433 -0.037645 0.170082 0.017010 0.367687 0.111732 0.192623 -0.072592 -0.185489 0.225697 -0.339586 0.099041 -0.288173 -0.212765 0.233679 -0.116338 -0.211396 -0.212395 0.334212 0.369132 0.363008 -0.147203 -0.008001 0.002351 -0.274894 0.172123 -0.409790 -0.106836 -0.124127 -0.089259 -0.111797 0.372038 0.222992 -0.487509 -0.063764 0.125996 -0.047766 0.251103 0.224779 -0.057365 -0.095119 0.354503 -0.140078 0.276421 0.287099 0.258492 0.368075 -0.026091 -0.449551 -0.305356 -0.042304 0.021017 -0.080781 0.056363 0.751202 -0.159891 -0.311987 -0.077222 -0.466198 0.440499 -0.099735 0.064463 -0.236335 0.026502 -0.051142 -0.091106 0.010945 -0.121420 0.014114 -0.233996 0.121274 0.464600 0.246145 0.104120 -0.049918 0.122093 0.311328 -0.085737 0.161546 0.117524 0.053787 0.184649 -0.272527 -0.005599 0.014453 -0.315508 0.089549 0.117070 0.208268 -0.009867 -0.285761 -0.116505 -0.038755 0.298164 -0.468855 0.192295 -0.129718 0.176444 0.397205 0.159684 0.222560 0.343645 -0.114626 -0.215971 0.466151 0.079560 0.195186 0.454664 -0.017868 -0.234738 -0.109410 0.127090 0.033470 -0.232963 -0.099871 -0.049228 -0.150731 -0.202910 0.218739 0.092842 -0.162690 -0.095223 0.036699 0.266359 0.193761 0.125398 -0.176703 0.388808 -0.432540 -0.243873 -0.327631 0.240548 -0.106845 -0.182141 0.026381 0.055299 0.206886 -0.160046 -0.217126 0.200354 0.319862 0.004072 -0.146225 0.111662 -0.216062 -0.159717 -0.084724 -0.046544 0.284013 0.201137 -0.040830 0.590022 0.088711 -0.026390 -0.224505 0.143507 -0.141205 -0.001892 -0.157370 0.323806 0.138346 -0.153353 0.284139 0.159633 0.054105 -0.006941 0.083886 0.133764 -0.298995 -0.003398 -0.199892 0.299707 -0.091485 -0.056172 0.122562 -0.146567 0.000201 0.147038 0.255495 0.147587 0.058234 -0.221334 0.099173 0.020658 -0.133146 0.047564 -0.118007
香 -0.048299 -0.089675 -0.178895 0.130719 -0.181511 -0.204053 -0.033159 0.349195 0.113942 -0.386733 -0.006568 0.191495 -0.069093 -0.371642 0.095007 0.183425 -0.087555 -0.272246 0.000231 -0.208827 -0.041405 0.042316 0.066848 -0.297653 0.128593 -0.189860 0.174419 -0.020444 0.082665 -0.068247 -0.200255 -0.062527 -0.221859 0.065061 0.022183 0.256599 -0.080381 -0.097243 0.331352 0.012950 -0.129441 -0.133927 0.034226 -0.066900 0.339006 -0.472607 -0.288610 0.042951 0.056180 0.142245 -0.322745 -0.075389 -0.215938 0.109193 0.043300 -0.080361 0.365484 -0.381446 -0.006680 0.307072 0.393450 -0.271769 0.208200 -0.046306 0.254561 -0.480374 -0.151429 -0.393159 0.303181 -0.047901 0.266396 0.113912 0.158861 -0.315003 0.125994 -0.031770 0.109325 0.477674 0.076271 -0.040375 -0.140390 -0.112962 0.024730 -0.058604 -0.178479 0.450111 0.048956 -0.119936 -0.524971 0.457924 -0.139350 0.305369 0.001025 -0.079787 -0.447650 0.065209 0.007613 0.062339 0.022998 0.250214 0.233959 0.346880 0.113316 -0.250561 -0.258261 -0.502554 0.497352 0.292557 -0.216665 -0.119134 0.079421 -0.388139 0.406205 0.158327 0.445871 0.234185 -0.156785 -0.102757 -0.265701 -0.069544 0.084297 0.301717 -0.093865 -0.214244 -0.030482 0.644341 0.268897 -0.234766 0.306373 0.176579 -0.354059 0.050183 -0.036302 0.099487 0.274599 0.103688 0.250004 0.066169 -0.197891 -0.128161 0.319384 0.466947 0.249807 -0.172059 -0.050446 -0.445469 -0.266984 -0.279357 0.276567 -0.040679 -0.037816 -0.027967 -0.316016 -0.508389 -0.055234 -0.223298 0.288843 0.135836 -0.395090 0.021874 0.253576 -0.330191 0.194782 0.087796 0.304108 0.091897 -0.057636 -0.175754 0.134192 0.016166 0.200164 0.076458 0.204203 -0.197032 -0.123716 0.058247 0.439824 -0.169399 -0.113284 -0.210063 0.218679 -0.001357 -0.280369 0.269914 0.057907 0.168676 -0.185841 0.149465 0.047804 -0.148334 0.055300 -0.109520 0.084439 -0.161193 -0.322924 -0.091393 -0.262117 0.623284 0.006320 -0.150245
美國 -0.304196 0.177854 0.032464 0.112740 0.052998 0.207992 -0.032548 0.226599 -0.059330 0.035386 -0.005460 -0.299417 0.443885 -0.037403 0.047108 0.279067 0.086060 0.127972 0.032288 0.403930 -0.105514 0.011477 -0.198606 -0.587297 0.017435 -0.270341 0.207928 -0.082264 -0.496332 0.208357 -0.326160 0.203390 -0.070205 0.143288 0.184335 -0.138878 -0.076629 0.179939 0.287889 -0.107675 0.166985 -0.222548 -0.288229 0.161457 0.229339 0.278318 -0.089340 -0.217915 -0.044081 -0.177548 0.439913 -0.231482 -0.241254 0.062281 0.152268 -0.201046 0.112973 0.003659 -0.095667 0.435013 0.100927 -0.093810 -0.037045 0.005324 0.171911 0.015484 -0.161829 0.239920 -0.066454 -0.224836 0.085994 -0.201413 0.207187 -0.074222 0.193641 -0.333297 0.345000 0.141145 -0.003637 -0.274600 -0.161018 -0.041014 -0.286202 0.168269 0.087200 0.237089 0.170009 0.120424 -0.051581 -0.279234 -0.372162 0.286594 0.098259 0.295258 0.382108 0.108156 0.047046 0.021041 -0.115401 0.093579 -0.097028 0.140032 -0.162757 0.060189 -0.056765 -0.017280 0.101334 0.279685 0.289729 -0.133808 0.199493 0.336506 0.050621 0.032511 0.298698 0.010244 -0.090521 -0.005258 -0.151445 0.135226 0.239862 -0.035949 -0.024979 -0.341642 -0.353733 0.130726 -0.196816 -0.029088 0.064211 -0.256107 -0.130439 0.164283 0.140833 -0.081202 0.466805 -0.173533 0.033754 0.224507 0.103591 -0.371349 -0.028707 0.119490 -0.320905 0.011632 0.079435 0.105691 0.221902 -0.230347 -0.027636 -0.032417 -0.217707 -0.070324 0.000640 -0.064436 -0.450193 -0.108095 0.064539 -0.241376 -0.083912 0.000398 -0.321293 0.084088 0.462018 0.229920 -0.149993 0.133934 0.109474 -0.059140 0.108556 -0.284836 -0.008996 -0.390708 0.341363 -0.043562 -0.141859 -0.152159 -0.087296 -0.262936 0.038207 0.092791 0.007140 -0.455937 0.302769 -0.200841 0.219424 -0.131504 -0.184646 0.038286 0.054223 0.056668 0.227199 0.248379 -0.165571 0.323819 -0.386818 -0.072896 0.011255 0.025805 -0.187833 0.343963
天 -0.207522 -0.154155 -0.152436 0.243223 0.073083 -0.213054 -0.485543 0.329317 0.151958 0.023975 0.342758 -0.114904 -0.097612 0.110547 -0.107236 0.204998 0.232986 0.423306 0.248940 0.011927 -0.000036 0.341693 0.109202 -0.314201 -0.316433 -0.207458 0.255389 0.041803 -0.595648 -0.151038 0.023533 -0.259887 0.200743 0.026743 -0.131626 -0.057359 0.076228 -0.431429 0.030483 -0.144038 -0.240936 -0.026713 0.015173 0.355387 0.652649 -0.364193 -0.047414 0.091518 0.035878 -0.027153 0.067324 -0.082308 -0.118923 -0.239465 0.036055 0.107633 0.079463 0.175247 0.209848 0.306979 0.206108 -0.078241 0.271803 0.478370 0.090226 -0.170757 -0.171299 0.079450 -0.071169 -0.295986 0.306943 -0.029556 0.218203 -0.230682 0.065319 0.066520 -0.069901 -0.097338 0.159637 -0.260399 0.258505 -0.249158 0.021618 -0.125969 0.009095 -0.068761 -0.054872 -0.214582 0.273154 0.397489 -0.099690 0.377425 0.331626 -0.113526 -0.524096 0.086577 0.056554 0.372142 -0.003490 -0.053961 0.226379 0.197238 0.105365 0.124574 0.501218 -0.283647 0.080175 -0.384994 0.008788 0.082755 0.132543 0.088275 0.014554 -0.086898 0.285222 0.037973 0.209420 0.063965 -0.021483 0.263740 0.421800 0.157110 -0.245161 -0.186666 -0.124078 -0.092546 -0.430112 -0.150149 0.180220 -0.254521 -0.165442 -0.174035 -0.244709 0.131503 -0.216689 0.168807 -0.154926 -0.064238 0.064237 -0.397084 0.447892 -0.058211 0.293033 0.033269 0.115538 -0.338044 -0.107324 -0.322124 0.123245 0.360857 -0.121543 -0.324233 -0.202000 -0.247117 -0.025724 -0.250480 0.433389 0.291901 0.073820 0.164128 -0.105535 0.066374 0.016275 0.134171 0.491127 -0.275723 0.025971 -0.105652 0.052536 -0.007739 0.127491 -0.160535 0.266459 -0.054912 -0.065067 0.085498 0.401324 0.353160 -0.145707 0.040518 -0.543947 0.132803 0.409092 -0.353309 -0.012972 -0.155005 -0.192421 -0.439510 0.068372 0.251285 0.120932 0.336586 -0.012111 -0.196763 0.018168 0.091337 -0.229558 0.241348 0.037545 0.176436
跑 -0.129956 0.116022 0.147303 -0.126658 0.075037 0.329055 -0.115320 0.097373 -0.087534 -0.033584 -0.097963 0.216447 0.017867 -0.037608 -0.201560 0.010974 0.001311 0.590590 0.199590 0.324509 0.343263 -0.015007 -0.025213 -0.195525 0.075293 -0.172527 -0.013466 0.434548 -0.107741 0.120588 -0.006292 0.195726 0.088961 0.040728 -0.150276 0.235424 -0.112574 0.347807 0.124357 -0.121932 -0.152017 0.057601 0.201065 0.293017 0.345458 -0.203448 -0.415895 -0.043908 0.301640 0.245211 -0.106637 0.126124 -0.170287 -0.097714 0.118513 -0.010166 -0.066920 0.163179 0.095260 0.097437 0.221482 -0.291901 0.138625 -0.172978 0.017041 -0.036171 -0.205976 0.073395 0.381431 -0.396221 0.283768 -0.176728 0.209203 0.089039 -0.120645 0.057833 0.555732 0.220038 -0.063143 -0.307810 -0.262183 0.044781 -0.401228 0.316902 0.120485 -0.237953 -0.221135 0.234100 0.205596 0.375572 0.052863 0.636984 0.020779 -0.032880 -0.202308 0.035156 -0.182553 0.153359 0.117255 -0.036895 -0.231118 -0.089018 -0.187494 0.284881 -0.255019 0.103999 0.257679 0.123940 -0.375398 0.001852 0.312421 -0.040146 0.034270 -0.146578 0.337486 -0.089384 0.270597 0.205131 0.333063 0.230111 0.134518 -0.170264 -0.279369 0.089928 0.176546 -0.000724 -0.114750 0.001776 -0.165897 -0.043584 -0.348151 -0.186509 -0.075961 0.064597 0.084846 -0.219232 0.082791 0.137530 0.217427 -0.246699 0.236733 0.118130 -0.134938 -0.263548 -0.049850 -0.230550 -0.277060 0.063239 -0.010435 0.301977 -0.050459 -0.190740 -0.062896 0.157856 -0.507668 -0.541227 -0.189020 -0.252318 0.013930 -0.109214 -0.105248 -0.034945 0.179409 -0.077071 0.360977 -0.051852 -0.129984 -0.140330 0.401090 -0.204654 -0.122392 -0.326248 0.619711 -0.119428 0.012037 -0.173895 0.124287 -0.070303 0.394627 -0.132190 0.001041 0.062989 0.313227 0.052062 0.091679 0.306543 0.212207 -0.066209 0.006107 0.057665 -0.152591 0.081737 -0.027039 -0.037932 -0.043089 -0.250672 0.339762 -0.183658 0.035980 0.177712
茶 0.275486 -0.085743 0.139305 -0.089598 -0.175075 -0.088638 -0.224611 0.195885 -0.214293 -0.729343 0.150760 -0.104252 0.041425 -0.312134 -0.020107 0.190133 -0.060520 -0.337437 -0.134330 0.066745 0.104007 0.411263 0.100148 -0.147888 0.283654 -0.506043 0.276643 0.162552 0.030098 -0.272036 -0.236230 0.156716 0.156095 -0.168765 0.370157 0.056023 -0.127503 -0.326306 -0.040584 -0.190921 0.121270 -0.114086 0.188946 -0.096335 0.311602 -0.208745 -0.219256 -0.050213 -0.197291 0.267976 0.049895 -0.309756 -0.188131 0.090333 -0.431862 -0.221046 -0.447437 -0.250347 0.006187 -0.018578 0.433420 -0.002446 0.143924 0.136562 0.179471 -0.392895 -0.244592 0.095199 0.601276 -0.199269 -0.064273 -0.129041 -0.179913 0.089346 -0.000851 0.093571 0.012188 0.601457 -0.273587 -0.157864 0.047119 -0.135544 -0.150952 0.226175 0.023545 -0.009827 0.005575 -0.064108 -0.200487 0.236765 -0.110231 0.462414 0.253968 -0.134066 -0.014897 -0.046696 0.223719 0.049939 -0.072182 0.395253 -0.206830 0.275498 -0.206701 -0.091799 -0.155936 -0.120663 -0.084630 -0.010756 -0.160402 0.201735 0.160287 -0.188138 0.127697 -0.408080 0.590302 -0.203357 0.078555 0.093084 0.018404 0.419624 0.197866 -0.010524 -0.040694 -0.123477 0.226245 0.133828 -0.091317 -0.150977 -0.037365 0.105075 -0.253637 0.162772 0.148958 -0.138054 0.404977 -0.053242 0.176512 0.026651 -0.598169 -0.290566 0.288604 -0.164395 0.146875 0.155231 0.588780 -0.819345 -0.030203 -0.345488 0.248259 0.266147 -0.164564 -0.075327 0.020799 0.091400 -0.067653 -0.155587 0.174290 -0.117563 -0.125831 0.265870 0.052682 0.086085 -0.275088 0.239440 0.334408 0.459469 -0.338017 -0.078706 -0.132088 0.168218 0.084422 -0.123591 0.156657 -0.119835 0.169081 -0.256227 0.151361 0.356310 -0.124644 0.236131 -0.231978 -0.198080 -0.404591 0.021347 0.174874 -0.268775 -0.020719 0.164220 -0.008184 -0.290481 -0.398278 0.264600 0.425056 -0.167225 -0.382638 -0.374904 0.592414 0.170848 -0.196772 0.121908
飲料 0.345269 -0.040704 -0.060427 -0.014794 -0.034126 0.094521 -0.015697 0.128994 -0.285222 -0.254566 -0.017502 0.011670 0.292874 0.089159 -0.149132 0.136264 -0.002011 -0.064820 0.086599 0.111916 0.234265 -0.030703 0.019595 -0.241563 -0.091992 -0.331488 0.419368 0.167751 -0.176264 -0.525523 -0.368587 0.292457 0.204051 -0.176736 0.334021 0.239696 -0.063914 -0.337662 0.363147 0.167780 -0.036835 -0.006740 -0.112082 0.137003 0.327027 0.083454 -0.483502 0.052095 0.073161 0.206593 -0.200293 0.111551 -0.416808 -0.074706 -0.189123 -0.181566 -0.500955 -0.200991 -0.242110 0.049088 0.045236 0.126517 0.164784 0.275823 0.326095 -0.222347 -0.092271 0.158510 0.319738 0.066850 -0.066706 -0.295084 0.057641 -0.181570 0.264427 0.079025 0.055566 0.171680 -0.433746 0.054060 0.035166 0.057861 -0.288811 0.094463 0.234852 0.179659 -0.018341 -0.149501 0.074105 0.141849 0.171423 0.409072 0.125647 0.118265 0.203068 -0.314748 -0.122679 -0.217094 -0.054408 0.224621 -0.089910 -0.186071 0.058342 -0.407777 -0.006926 -0.393560 0.049949 0.171679 0.142736 -0.010686 0.286824 -0.199960 0.322769 -0.282827 0.627026 -0.232245 0.409209 0.078307 0.177540 0.347238 0.000103 -0.134759 -0.170768 -0.125833 0.013164 0.116094 -0.025307 -0.069185 0.201771 -0.191772 -0.143780 0.251722 -0.157788 -0.094762 -0.052371 -0.138422 0.234995 0.002437 -0.190634 0.159024 -0.136350 -0.404849 0.011757 -0.249471 0.301075 -0.078965 0.076261 -0.213347 -0.036531 0.003220 -0.057737 0.195986 0.259524 -0.024095 0.075087 -0.383999 0.345352 -0.184942 -0.106474 -0.080427 -0.115308 0.319489 0.253350 -0.058284 0.021464 0.314334 -0.048821 -0.203908 0.048796 -0.070843 -0.135272 -0.211816 0.608344 -0.106284 0.061264 -0.210675 0.020188 -0.026310 -0.038915 0.128071 -0.390733 -0.107559 -0.611269 -0.155262 0.203649 -0.277292 -0.081371 0.207639 0.161156 -0.208206 -0.199538 0.109218 -0.070155 -0.226816 -0.004652 -0.071993 0.444377 0.340093 -0.146667 0.161717
媽媽 0.019274 0.526360 -0.110423 0.157454 -0.672650 -0.140159 -0.151071 0.185098 0.057218 -0.324188 -0.145690 0.267083 -0.046922 0.149206 -0.049050 0.299581 -0.104602 -0.090760 -0.213649 -0.044713 0.414257 0.031636 0.134393 -0.120582 0.455037 -0.263288 0.091948 0.178628 -0.177212 0.121092 -0.166390 0.117028 -0.388875 0.031088 0.302343 -0.134469 0.058795 -0.109898 -0.007234 0.089090 0.114992 -0.051722 -0.238253 0.054895 -0.085072 0.143044 0.039842 -0.149051 0.459502 0.088153 0.224425 0.073964 0.003220 -0.298798 0.204094 -0.137410 0.297431 0.458343 0.192685 0.097439 0.289011 -0.373207 -0.034448 0.136012 0.133717 -0.116495 0.197507 0.100295 0.045185 -0.136014 0.091553 -0.091369 0.005749 -0.309768 0.122216 0.156756 0.259668 0.079134 0.038520 -0.287068 0.139079 -0.251920 -0.336350 -0.170971 0.364122 0.062405 -0.097234 0.490695 -0.000137 0.413505 -0.295932 0.426051 -0.154385 0.019313 0.026868 -0.280344 -0.160548 -0.443440 -0.189550 0.165260 0.173049 0.009167 0.222354 -0.100638 0.120232 -0.279494 -0.044782 -0.179170 -0.165158 -0.242792 0.337484 -0.141991 0.355303 0.219023 0.400159 0.346454 -0.088555 -0.027743 -0.439075 0.385246 0.142125 0.045857 -0.332136 -0.384689 0.557663 -0.073157 0.002494 0.074449 -0.015830 -0.100612 -0.036238 -0.002551 -0.190343 0.211578 0.269437 -0.185325 -0.181301 0.128352 -0.124118 -0.213699 0.005292 0.012540 0.148446 -0.345993 -0.130063 -0.424990 0.249855 -0.149172 -0.080964 -0.007757 -0.204080 -0.054799 -0.215542 -0.246690 -0.064549 -0.158436 0.080364 -0.062714 -0.135202 -0.037220 -0.159109 0.047777 0.380761 0.279379 0.213624 0.127698 0.007443 -0.187941 0.239097 -0.376580 -0.188055 0.029470 0.003020 0.429993 -0.100576 0.022374 -0.138570 0.118125 0.254436 0.203072 0.035289 -0.212538 -0.117112 0.302890 -0.033343 -0.038196 0.172597 -0.114063 0.005190 0.065103 -0.108077 0.147164 -0.000004 -0.131422 -0.118536 0.149072 -0.227383 0.040657 0.329447 0.227846
老師 -0.239287 0.042404 -0.204216 0.131930 -0.123824 -0.060895 -0.485469 -0.057742 -0.229272 -0.469800 0.156527 0.019033 -0.076975 -0.097628 -0.059414 -0.226425 0.035371 0.315789 -0.313843 0.172664 0.368600 -0.017569 0.030149 -0.243875 0.075153 -0.229389 0.011869 -0.073490 -0.137374 0.088728 -0.146730 0.115158 0.339165 -0.104171 -0.045845 -0.281965 0.065200 0.388968 0.131227 -0.225970 0.060075 -0.153756 -0.144665 0.193786 0.000685 0.081183 0.028174 0.090891 0.279017 0.170984 0.257797 0.035892 -0.107308 -0.486515 0.352828 -0.045721 -0.068605 0.654536 0.069862 0.087031 0.119561 -0.562043 0.008330 0.255358 -0.078657 -0.073985 -0.249402 -0.226893 -0.116489 0.111559 -0.088226 -0.190187 0.234129 -0.009846 0.262053 -0.370060 0.238603 -0.026036 -0.112995 -0.336962 0.081402 -0.176665 -0.136781 0.064540 0.131577 0.136178 -0.133367 0.525173 0.130567 0.238200 -0.088425 0.282886 -0.202095 0.179005 0.117939 -0.297910 0.248997 0.222099 -0.305225 -0.129061 -0.043771 -0.216923 0.122500 -0.115754 -0.092342 -0.010272 0.092194 0.046884 0.180512 -0.012725 0.149540 -0.036963 0.459622 0.330625 0.496345 0.018979 -0.028586 0.033329 -0.286381 0.180256 0.296032 0.055209 -0.138647 -0.286595 0.391378 0.183075 -0.570002 0.308518 0.210709 -0.135169 -0.355129 0.057020 -0.369765 -0.192587 0.240004 -0.053463 0.287332 0.190988 -0.002929 -0.188468 0.116544 -0.256595 0.110732 0.004236 0.158972 0.154350 0.346199 -0.381472 -0.306251 -0.217449 0.143496 -0.119133 -0.244252 0.052518 -0.102192 -0.185051 0.176373 0.177309 0.113716 0.077309 -0.207475 0.277671 -0.048528 0.094028 0.445008 -0.144032 0.041043 0.071019 0.359303 -0.370947 0.400383 0.000044 -0.026285 0.173524 -0.294962 -0.142875 0.319398 0.290263 -0.069397 0.495777 0.076906 -0.338149 -0.502697 0.182746 0.299434 0.063365 -0.027946 -0.092133 0.097637 0.027531 -0.076756 -0.216546 0.132706 0.142402 0.169004 0.064662 -0.020701 0.226529 0.159803 -0.185463
男人 -0.009081 0.370090 0.066882 0.344313 -0.278997 0.023866 0.032709 -0.034720 0.101571 -0.588970 0.037036 0.109475 0.151236 -0.175310 -0.125827 0.275297 -0.201492 0.289751 -0.228061 -0.132021 0.111001 0.056812 0.042648 0.165068 -0.077555 -0.400188 0.139469 0.345202 -0.042524 -0.142167 -0.347659 0.193967 0.164769 -0.126916 -0.125287 -0.266216 0.163424 0.104419 0.336097 -0.012962 0.154290 -0.059629 0.113970 0.000308 0.474961 -0.019822 0.107884 0.005504 -0.087683 0.247792 0.070313 0.185325 -0.378123 0.070315 -0.183104 -0.102714 0.125483 0.092989 0.094518 0.162951 0.373625 -0.319301 -0.026687 0.145543 0.330237 0.012142 -0.304228 0.268729 0.057289 -0.192375 0.405764 -0.077245 0.330342 -0.263651 -0.183831 0.315232 0.325671 0.040116 0.068559 -0.182583 0.043312 -0.180085 -0.087183 -0.399038 0.043739 -0.098680 0.098589 0.597475 -0.059108 0.110501 -0.120730 0.178043 -0.125455 -0.148333 -0.177811 -0.341213 -0.386817 -0.397123 -0.110612 0.209469 -0.212016 -0.169866 0.432840 0.002320 0.135527 -0.101588 -0.030016 -0.360753 0.004498 0.003034 0.544964 0.038711 -0.072227 0.460296 0.003909 0.796054 0.361060 -0.192753 -0.281163 0.033970 0.225623 0.424290 0.038413 -0.117603 -0.039737 0.303401 -0.215412 -0.049272 0.035713 -0.091372 -0.099485 0.242010 0.244364 -0.002625 0.173172 0.028721 0.189835 0.189648 0.253546 0.042318 -0.079724 0.056686 -0.035010 0.191734 -0.100411 -0.354092 -0.295024 -0.227092 0.077270 0.084432 -0.065009 -0.091157 0.181699 -0.035890 0.200801 0.005035 0.243780 -0.013257 0.226664 -0.270429 -0.110987 0.230881 0.263313 0.058020 0.294861 -0.021072 0.214990 -0.018375 0.356904 -0.116217 -0.037749 -0.300964 -0.080006 0.097828 0.226465 -0.268959 0.401317 0.428492 0.055906 -0.142998 0.126274 -0.292337 -0.122901 0.119249 0.252062 -0.195714 -0.076269 0.105647 0.184283 -0.178459 0.072375 0.038692 0.252782 0.106825 -0.201932 -0.134603 -0.146657 -0.096513 -0.394739 0.003044
魚 -0.001664 -0.487598 0.162905 -0.687860 0.025898 -0.259062 0.017286 0.199448 0.038248 -0.350592 0.165845 -0.202218 0.299065 -0.171120 0.231087 0.126457 0.266568 -0.097658 0.260955 0.388940 -0.089077 -0.261776 0.085294 -0.327370 -0.209118 -0.210945 0.318909 0.359848 0.028008 0.212644 -0.003453 0.068220 0.382352 0.118811 0.014832 -0.025722 -0.485274 -0.096016 0.110033 0.649696 0.016364 -0.251526 0.120071 -0.312587 -0.058954 0.183953 0.051197 0.413676 0.157139 -0.006500 0.349224 0.213579 -0.005529 -0.284237 -0.142461 0.036136 -0.114896 -0.015223 0.021875 -0.245193 0.361835 -0.338131 0.585954 0.174216 0.274158 -0.070650 -0.201408 -0.067253 0.103266 0.101444 0.104135 0.218200 -0.155048 -0.175666 0.214366 0.063057 0.281001 -0.081240 -0.275136 -0.128431 0.171221 -0.019139 -0.034410 0.243229 0.049256 0.158456 0.189475 0.244258 0.013313 -0.203079 0.053907 0.222498 -0.084321 -0.047464 -0.206765 -0.261881 -0.194027 0.056607 -0.356708 -0.334440 0.222823 0.089065 -0.227743 -0.138001 -0.221484 0.054980 0.088800 0.136451 0.226281 -0.297820 -0.009816 -0.634158 0.317354 -0.378714 0.559071 0.374795 0.343098 0.264339 -0.317741 0.190490 0.145039 0.199016 -0.017689 -0.198069 -0.047596 -0.057202 -0.261741 0.149313 -0.002856 -0.296336 -0.169042 0.093316 0.146179 -0.044065 0.220672 0.174644 0.216331 0.146136 -0.018806 -0.223956 0.103758 -0.427629 0.391684 0.107657 -0.056465 -0.485638 -0.199887 -0.251144 -0.177796 0.143080 -0.466613 0.231883 0.084071 -0.225846 -0.254693 -0.030579 0.106746 -0.093497 -0.142937 -0.008192 -0.154580 0.047742 0.147469 0.071144 -0.006907 0.488376 0.240971 -0.332234 0.019454 -0.232080 -0.124755 0.162788 0.215217 -0.123521 0.628258 0.084944 0.122519 -0.196744 -0.070211 0.094900 -0.226445 0.147219 0.222049 -0.030589 0.001304 0.029132 0.104831 0.077644 0.171418 -0.022381 -0.050944 -0.063592 0.005679 0.191135 -0.299036 -0.138570 -0.284640 0.378389 -0.284845 0.424926
手 -0.279196 -0.059024 -0.183897 -0.212095 -0.321741 -0.345084 -0.153717 0.232616 -0.440336 -0.603720 0.598709 -0.106649 0.192281 0.041358 -0.108073 0.113740 0.359090 0.438665 -0.051391 -0.076344 0.214667 -0.027980 0.115019 -0.293890 -0.133518 -0.043393 0.096238 -0.096677 0.168436 0.156279 -0.145835 0.262305 -0.112501 -0.048823 -0.148002 -0.461240 -0.496904 -0.173424 0.143656 -0.081824 0.162530 0.310264 -0.096208 0.252997 -0.257372 -0.061249 0.029159 -0.342475 0.048791 0.243092 -0.060857 -0.246261 -0.252070 -0.054875 0.357641 -0.269439 -0.107962 -0.059577 0.147312 -0.055555 0.232495 -0.012105 -0.127159 0.063582 0.143859 -0.199512 -0.351572 0.070508 0.305433 -0.255164 0.134827 -0.162468 0.342582 -0.267044 -0.040746 0.606830 0.446246 -0.204146 -0.078559 -0.396971 -0.146700 -0.063440 -0.047548 0.486633 0.069010 0.114391 0.103253 -0.159405 0.015281 -0.012746 0.147895 0.309234 0.156774 -0.087257 -0.025500 -0.010285 0.165664 0.073704 -0.044359 0.153938 0.229334 0.069474 -0.069040 0.188026 -0.202753 -0.574290 0.199422 -0.008818 -0.027219 0.120938 0.134628 -0.245750 0.228729 -0.074696 0.287688 0.199489 -0.096779 -0.169696 0.077564 0.417600 0.027029 0.211885 -0.424574 -0.025618 0.213422 0.161492 0.069351 0.224579 -0.268413 0.158171 -0.350691 -0.076893 -0.237567 0.227133 -0.097676 0.325519 -0.186531 0.239103 -0.062784 -0.259041 0.210967 0.092064 0.136384 -0.363019 0.225152 -0.083445 -0.243621 -0.043854 0.239937 0.127311 -0.156216 -0.105634 0.142880 -0.096643 0.270414 0.206500 -0.065042 0.068979 -0.092663 0.153230 -0.113377 -0.181333 0.123160 0.205953 -0.008530 0.111548 0.220059 0.213643 0.154486 -0.213059 -0.021739 -0.034618 0.391163 0.297676 0.137116 -0.287692 0.279237 0.236532 0.094274 0.076014 0.044325 -0.250550 0.425466 0.049991 0.030769 0.143620 0.152546 -0.073280 0.163131 -0.068348 0.068704 0.244115 0.140427 0.368586 -0.345798 0.128577 -0.129690 0.480689 -0.061444 0.092468
麵包 -0.012418 -0.006047 0.172985 -0.268327 -0.014691 -0.208469 -0.214708 0.239434 -0.514361 -0.220854 0.008739 0.021931 0.477610 0.256562 -0.541151 0.367139 -0.182203 0.292275 0.107515 -0.038946 -0.032437 0.011290 0.378641 -0.508935 0.270135 -0.211840 0.408168 0.141886 -0.135085 -0.383290 -0.020057 0.288237 0.061315 0.591247 -0.054500 0.346329 -0.172046 -0.027527 0.408043 0.437777 0.029445 -0.395817 0.188887 0.311868 0.319664 0.127268 -0.260606 0.567055 0.276646 -0.092355 -0.070926 -0.433841 -0.212920 0.121668 -0.122274 -0.331734 -0.481041 0.202099 -0.193940 -0.302648 0.018144 -0.056827 0.237986 -0.116750 0.463166 -0.021689 -0.299924 -0.129824 -0.077176 0.140578 0.649710 0.185542 0.232777 -0.007300 -0.064714 -0.262361 -0.442061 0.291780 0.028570 -0.411391 -0.451138 -0.030175 -0.203970 0.219439 0.540569 0.202515 0.024662 -0.031077 -0.204293 -0.004437 0.008181 0.115083 -0.111639 0.260940 0.284361 0.009170 -0.155269 -0.207934 -0.221168 0.027600 0.010109 0.198933 -0.133891 0.186262 -0.000018 -0.510015 -0.330873 -0.283184 0.164010 0.054773 0.000359 -0.412579 0.610560 -0.012535 0.305879 0.383266 0.170733 0.127841 0.005671 -0.013471 0.166743 0.127669 -0.170650 -0.088461 -0.084635 -0.164559 0.122106 -0.049357 -0.003713 -0.000181 0.005626 0.116437 -0.283292 -0.120099 0.166734 -0.178395 -0.058256 0.095782 -0.325431 -0.247491 0.161759 -0.326300 0.325904 -0.440889 0.474085 0.100927 0.184852 0.032851 0.126900 -0.365216 -0.075621 -0.125976 -0.323813 -0.009062 0.155802 -0.138452 0.520285 -0.139305 0.250009 0.330155 -0.134806 0.173214 0.031875 0.293604 0.033877 0.048647 0.038895 -0.370536 -0.072953 0.038670 -0.131932 -0.141975 0.521282 0.255807 -0.059690 0.076614 0.392316 -0.266730 -0.058817 0.010117 -0.307542 -0.304872 -0.387701 -0.055723 0.407431 0.271019 -0.060270 0.188256 -0.501243 -0.051470 -0.362954 -0.359538 0.081545 0.028042 -0.046295 -0.107160 -0.098508 0.079545 -0.230181 0.341741
結婚 -0.046291 0.431586 0.129022 0.181260 -0.086913 -0.178235 0.028798 0.283571 -0.303612 -0.445813 0.120376 0.058552 0.003120 -0.197525 -0.113755 0.036858 0.093383 -0.273860 0.150072 -0.063627 -0.050213 0.305550 0.165637 -0.173551 -0.285274 0.196535 -0.124483 0.031448 -0.026979 0.464837 -0.271888 0.190758 -0.095413 0.097210 -0.002092 -0.105416 0.333625 -0.262196 0.181505 -0.463842 0.055131 -0.332230 0.020183 0.149591 -0.162205 0.049114 -0.444838 0.107630 -0.263024 0.179551 0.240694 0.227607 0.067950 -0.035300 0.025311 0.254161 0.557876 0.313810 0.295575 0.383182 0.313006 -0.646413 -0.137702 0.111548 0.325269 -0.297387 -0.020839 0.335844 0.148387 -0.082239 0.290879 -0.268285 0.147274 -0.558429 -0.125726 0.118291 0.073149 0.282769 -0.210635 -0.101624 -0.166142 -0.344632 -0.272326 0.046410 -0.243331 0.249031 0.053682 -0.066908 -0.306719 0.478423 -0.139015 0.159581 0.114748 -0.001895 -0.119268 -0.314363 -0.121662 -0.140012 -0.152372 0.289309 0.235273 -0.000714 0.105453 -0.274066 -0.182966 -0.013687 0.160308 -0.534025 0.006710 -0.029592 0.286810 0.109188 -0.294935 0.037300 0.094411 0.052891 0.147646 0.413463 -0.450767 0.161821 -0.256739 0.023561 -0.262261 -0.334095 -0.099152 -0.124123 -0.149346 -0.193705 0.260273 -0.466899 0.139821 0.132856 0.033885 -0.029305 -0.164507 -0.087516 -0.010174 0.097367 0.003673 -0.004890 0.181894 -0.112725 -0.526907 -0.307703 -0.271062 -0.241769 -0.378839 -0.392296 0.239855 -0.087614 -0.111610 -0.400790 -0.012504 -0.109596 -0.110636 -0.205483 -0.108116 -0.182025 0.031834 0.207030 -0.112164 -0.129920 0.269550 -0.092698 0.456973 0.078092 0.191148 0.145834 0.330182 -0.001705 -0.307649 -0.201252 0.121602 0.017657 -0.213740 -0.157079 0.641345 0.180460 0.131772 -0.004984 -0.206473 -0.048304 -0.062059 -0.297807 0.205995 -0.005333 -0.075495 0.394173 -0.483388 -0.060127 0.134321 0.246259 -0.015995 -0.041114 0.002843 -0.138816 0.056097 -0.208521 -0.090859 0.003607
白 -0.263079 -0.161161 -0.214700 -0.273760 -0.307878 -0.109167 -0.056344 0.164005 -0.282968 -0.136573 0.180455 -0.029537 0.270107 0.030245 0.248568 -0.084809 0.197338 0.500149 -0.208958 0.098457 -0.155645 0.155826 0.147101 0.072082 -0.342077 -0.367456 -0.294251 0.024333 -0.148695 0.055692 -0.068445 0.094992 0.236308 0.050252 -0.408525 -0.207909 0.080410 -0.191976 0.257167 -0.146286 -0.098712 -0.514845 0.159429 0.167457 0.232775 -0.040576 0.137210 -0.153633 0.058334 -0.108932 -0.029530 0.174916 0.000150 -0.419167 0.292817 0.187808 -0.394820 0.199207 -0.109095 0.116676 0.253492 -0.096991 0.116825 0.378040 0.238681 -0.322684 -0.136827 0.081124 0.254680 -0.293776 0.093292 0.309156 -0.053480 -0.189442 0.093238 -0.064673 -0.081029 0.094954 0.064456 -0.229823 -0.061517 -0.005075 0.003789 0.374864 -0.127620 0.227616 -0.107842 0.123449 0.127200 0.010466 -0.454772 0.204058 -0.150338 0.164698 0.018934 0.058653 0.091241 0.465905 0.089382 -0.126800 0.159553 -0.051373 -0.011675 -0.067321 0.033893 -0.202464 0.420394 0.153757 0.154987 0.073278 0.208454 -0.456679 -0.031397 -0.013563 0.277499 0.026508 0.196290 0.376471 -0.422536 0.444717 -0.222974 -0.004781 -0.140585 -0.069050 0.093549 0.330010 -0.225162 0.405201 -0.270617 -0.056535 -0.418487 0.064580 -0.028850 0.403408 0.281613 -0.328674 -0.263420 0.283813 0.017113 -0.361600 0.331491 -0.294860 0.151291 0.020702 0.055824 -0.242296 -0.159941 -0.121976 0.225659 0.088297 0.014750 -0.224753 -0.621079 -0.088713 0.182395 -0.048548 0.305843 -0.271546 -0.139627 0.014558 0.138308 0.184576 0.324034 -0.328215 0.332016 0.192995 0.294534 -0.127207 0.106317 0.084627 0.257735 0.043621 0.225787 0.055060 0.000264 -0.264705 0.089099 -0.266657 -0.159525 0.424903 0.277681 -0.035506 -0.140510 -0.245011 0.018926 0.184395 0.153783 -0.228519 0.383861 -0.699507 0.430877 0.008003 -0.230603 0.129448 -0.144182 -0.081720 0.643629 0.105506 -0.037744 0.267759
狗 -0.352757 0.047523 0.194689 -0.160851 -0.324912 0.199470 -0.102048 0.187024 -0.123787 -0.256121 -0.122932 0.343024 0.014096 0.354104 0.164927 0.298959 -0.030054 0.581886 -0.191278 0.449779 0.134218 -0.107448 -0.215379 -0.053928 0.152163 -0.066957 -0.303907 0.605703 -0.283988 0.252636 -0.248627 -0.035186 0.165848 -0.170833 0.110749 0.171083 -0.112130 0.554139 0.087751 0.003687 0.378990 -0.046488 0.376077 0.204469 0.154889 0.058557 -0.135084 0.236245 0.193328 -0.173280 0.213850 0.003484 -0.182962 -0.157938 0.013442 -0.268870 -0.187169 0.223077 -0.045758 -0.153964 0.461512 -0.048882 0.073469 0.096614 -0.043556 -0.500274 0.056164 -0.112569 -0.138870 0.069869 0.233559 0.139874 0.336719 -0.089343 -0.395507 0.112055 0.506220 0.068614 0.077049 -0.332322 0.252221 -0.299580 -0.380877 0.187192 0.004143 0.012308 0.389134 0.273115 -0.207948 -0.098277 -0.374069 0.345669 -0.078871 0.158072 -0.084861 0.130414 -0.078441 0.029582 -0.478638 0.088770 -0.022710 -0.087689 0.024047 -0.176784 -0.157076 -0.046027 0.238706 -0.160906 0.031143 -0.080198 0.214087 -0.228163 -0.014522 -0.024237 0.422878 -0.026965 0.384874 0.030301 -0.065934 0.028642 0.220011 0.000250 0.047133 -0.187633 0.186080 -0.063939 -0.016220 -0.212188 0.071490 -0.203776 -0.440384 0.153595 -0.152182 0.277644 0.320637 -0.002381 0.232924 0.060771 -0.082089 -0.238510 0.166620 0.026184 0.242838 -0.198645 -0.029073 -0.271033 0.181744 -0.055638 -0.059412 0.122124 0.000794 -0.005432 0.255325 0.098577 0.022749 -0.280938 0.241283 -0.307148 0.078418 0.466692 -0.184102 0.062209 0.094330 0.140065 0.179114 -0.207392 0.066570 0.071277 -0.067275 -0.306732 0.078374 -0.094290 0.010805 0.113411 0.267401 -0.091344 -0.095251 -0.534736 -0.247554 0.144178 -0.065778 -0.341647 0.382077 -0.045578 0.130125 0.089500 0.657909 -0.146134 -0.152124 -0.139579 0.523782 0.308505 0.095279 0.096580 -0.113443 0.265171 -0.125529 0.081452 -0.218264 0.148083
咖啡 0.307514 -0.168932 -0.103455 -0.224863 -0.317572 -0.134222 -0.032337 0.164123 -0.304149 -0.072800 0.145851 -0.231998 0.080852 0.029851 0.055357 0.389778 -0.006782 -0.272619 -0.237687 -0.129222 0.238655 0.338080 0.141328 -0.486008 0.030310 -0.520906 0.162356 -0.000575 -0.318889 -0.404266 0.053570 0.162654 0.043799 0.089310 0.197780 0.481243 0.001049 -0.006607 0.603774 -0.060116 -0.021461 -0.024324 0.167324 0.226831 0.536390 0.115772 -0.244042 0.153717 -0.098699 0.331629 -0.130241 -0.170129 -0.320774 -0.076455 -0.251343 -0.181668 -0.402950 0.065335 -0.199713 -0.162441 0.099776 0.174942 0.160997 -0.088914 0.334659 -0.432078 0.100853 0.175682 0.457853 -0.106902 -0.125907 0.007047 0.217504 0.103880 0.346394 0.033084 0.270032 0.236123 -0.208852 -0.061700 -0.186382 0.088679 -0.227667 -0.096693 0.132062 0.308132 -0.011516 -0.034175 -0.207289 0.258656 0.106124 0.534393 -0.048424 0.103575 0.120318 -0.364153 -0.008348 0.098799 0.092318 0.383361 -0.403367 0.067504 -0.057810 -0.387873 -0.099508 -0.258076 0.320909 -0.211044 -0.136295 -0.202732 0.127191 -0.286228 0.154490 -0.370113 0.498708 -0.175419 0.233081 0.011346 0.170789 0.115400 0.059815 -0.288227 -0.259408 0.212301 0.050560 0.111672 -0.217699 0.110938 0.074444 0.129551 -0.139235 0.351862 -0.482801 -0.212649 0.242111 -0.083609 0.272607 -0.065321 -0.192704 -0.139137 0.066971 -0.281261 0.291451 -0.024497 0.043145 -0.406380 -0.185580 -0.086945 0.155170 0.186138 -0.186853 0.100621 0.207007 0.246203 -0.081914 -0.051727 0.296244 -0.056328 -0.109351 0.128912 -0.047600 0.163958 -0.028618 0.074482 -0.095242 0.033446 -0.220855 -0.100766 -0.018513 -0.024418 -0.214139 -0.165905 0.387717 -0.129026 0.111044 0.043202 0.293734 0.032890 -0.235038 0.195785 -0.368081 -0.160895 -0.466492 -0.164655 -0.066123 -0.497192 -0.098939 -0.014155 -0.082323 -0.135098 -0.292352 0.240025 0.110451 -0.239777 -0.236220 -0.187688 0.125487 0.394560 -0.258740 0.146627
車 -0.234652 -0.124934 -0.313026 -0.149762 0.000524 -0.147357 -0.134603 0.225839 -0.184999 -0.050140 0.290289 0.168338 -0.182346 -0.459043 -0.092372 0.487518 -0.190371 0.552345 0.176080 0.479253 -0.112066 0.105411 -0.079701 -0.222466 -0.084802 -0.092494 -0.250545 0.312466 0.158011 -0.046791 -0.076102 -0.133383 -0.186574 0.073646 0.166611 0.001522 0.035885 0.370632 0.179043 -0.339416 0.036750 -0.073540 0.104268 0.472268 0.489058 0.361777 0.060855 -0.245964 -0.269577 0.038564 -0.083226 0.187074 0.461572 -0.294360 -0.110168 0.052047 0.114750 -0.067906 -0.104342 0.007514 0.282711 0.136746 0.131758 0.095455 -0.182127 -0.307529 0.135004 0.052478 0.097743 -0.250952 0.130988 -0.381539 -0.004787 -0.234644 -0.252557 -0.101285 -0.123197 0.278267 -0.282208 0.128408 -0.044377 -0.267721 -0.172716 0.495195 -0.201808 0.203415 0.302758 0.205168 0.009534 -0.040274 -0.027219 0.405669 0.277788 -0.313638 -0.547561 -0.230573 0.138473 0.075749 -0.329142 0.241772 -0.195815 -0.404980 -0.246940 0.242907 -0.116094 -0.122416 0.089999 0.040907 0.045472 0.179179 0.132973 -0.038159 0.277603 -0.043988 0.014673 0.490561 0.393304 -0.247143 -0.334807 0.501067 0.226899 0.097760 -0.348279 -0.075263 0.078703 -0.089281 -0.058413 0.150444 0.007369 -0.072747 -0.104425 0.196432 -0.230845 -0.031746 0.222760 -0.310048 0.328372 0.109053 -0.208996 0.098195 -0.262576 -0.228165 -0.067492 -0.230089 0.298341 0.009364 -0.406312 0.318843 -0.066446 0.247349 -0.242916 -0.292917 0.265592 0.016259 -0.072173 -0.403639 0.118395 -0.019218 0.185974 0.082076 -0.050365 0.100690 0.014300 0.096133 0.002628 -0.090149 0.078714 0.333245 0.133914 -0.342972 0.042285 -0.401320 0.899816 0.194923 0.035349 0.047477 0.313916 0.135265 0.139786 0.105278 -0.199067 -0.003335 -0.116605 -0.210429 0.152499 0.161237 0.035042 0.348649 -0.027557 -0.134533 0.211159 -0.039791 0.344362 -0.015296 -0.374664 -0.082554 0.309671 -0.048440 0.387288 0.237721
學生 -0.246625 -0.037496 -0.249549 0.247824 -0.021200 -0.008854 -0.211197 -0.108899 -0.055945 -0.251332 -0.124303 0.080386 -0.127805 -0.147554 0.058823 -0.186392 0.265625 0.535151 -0.312886 0.335412 0.347820 -0.024992 0.351593 -0.442040 -0.212772 -0.298301 -0.052769 -0.020926 -0.163736 0.059425 0.022715 0.275376 0.683108 -0.029218 -0.053135 -0.169758 -0.006794 0.142577 0.160445 -0.044788 -0.011562 -0.487485 -0.045318 0.101405 0.112998 0.183353 0.000807 0.081258 0.179478 0.392262 0.108492 0.008313 -0.155862 -0.536214 0.399457 -0.201597 0.025593 0.387732 -0.085300 0.067468 -0.023682 -0.263252 -0.001979 0.128206 0.060408 -0.110134 -0.268487 0.058797 0.023614 -0.189665 -0.270903 -0.467309 0.371630 -0.012946 0.068053 -0.281900 0.235447 0.103493 -0.113264 -0.586688 0.008474 -0.147243 -0.174163 -0.103108 0.025833 0.188519 -0.042475 0.528057 0.207814 0.171301 0.097438 0.243267 -0.290921 0.120341 0.143616 -0.381626 0.348274 -0.057821 -0.045045 -0.422744 0.037892 -0.291009 0.322641 0.121750 -0.146327 0.103454 0.136851 0.247722 0.295347 -0.152096 -0.113187 0.082537 0.283453 0.357816 0.495306 0.133275 -0.128615 0.264276 -0.022457 0.279513 0.102860 0.202798 -0.146546 -0.276893 0.386502 -0.006931 -0.541092 0.063011 0.130356 0.188461 -0.215245 0.254690 -0.215814 -0.127991 0.110509 -0.105091 0.462287 0.243024 -0.004299 0.117383 0.028236 -0.150615 -0.071457 -0.036867 -0.005316 -0.048998 -0.021219 -0.140367 -0.082825 0.106617 0.116653 -0.184374 -0.137141 -0.039480 -0.130591 -0.225766 0.347845 0.252983 0.210066 -0.055817 -0.254699 0.370065 0.123304 -0.004580 0.441017 -0.178137 -0.012408 -0.040602 0.195166 -0.485927 0.279946 -0.082964 0.040543 0.209402 0.244862 0.019873 0.544092 0.046742 -0.060028 0.236939 -0.192806 -0.159924 -0.213884 -0.187465 0.351681 0.089672 0.119355 -0.221959 0.026524 -0.052538 0.000633 -0.104352 -0.053330 0.405178 -0.233298 0.183041 -0.068676 0.034203 0.090163 -0.263632
高雄 0.307859 0.039334 -0.578753 -0.013550 -0.018027 -0.019983 -0.056648 0.104121 -0.095987 -0.058279 0.403517 -0.130231 0.109855 0.081391 0.216204 0.104252 -0.286123 0.093438 -0.225760 0.311039 0.070778 0.461783 -0.220414 -0.655641 0.256667 -0.511707 -0.298635 0.185334 -0.077062 -0.122147 -0.207879 -0.094703 0.040130 0.325044 -0.118647 0.139721 0.021110 -0.321597 0.286536 -0.043036 -0.430379 -0.231563 -0.261211 0.226742 0.074764 -0.056607 -0.077221 -0.344674 0.055182 -0.144253 0.365942 0.154773 -0.153683 -0.043813 0.162183 0.096847 -0.036066 0.094744 -0.045228 -0.030861 -0.150051 -0.406608 0.160210 -0.196417 -0.376382 0.036857 -0.134389 0.267547 -0.237558 -0.719037 0.006060 -0.269796 0.448142 -0.303080 0.185414 -0.349479 0.098072 0.175673 0.165378 -0.210043 -0.144864 -0.080542 -0.535175 0.372652 0.021099 -0.195603 0.087640 -0.113709 -0.190966 -0.077569 -0.223278 0.449841 0.093386 0.071211 -0.159770 -0.025492 0.028929 -0.105484 -0.298449 -0.601752 0.101440 0.168782 0.208899 -0.041736 0.169847 0.160877 0.270636 0.220200 0.128298 0.238266 0.029684 -0.214709 -0.109996 -0.228143 0.292187 0.190336 0.104828 -0.106485 -0.293673 0.381482 -0.022408 0.016628 0.030447 -0.260543 -0.165457 0.103152 -0.203966 -0.149880 -0.451503 -0.099977 -0.178221 0.014362 0.046427 0.344635 -0.012378 0.041988 -0.240832 0.003426 -0.249862 -0.003097 0.498069 -0.272150 -0.269165 -0.038577 0.084517 -0.235801 -0.101732 0.145629 -0.219463 0.112526 -0.594850 -0.219820 0.057157 -0.202211 -0.196060 -0.155596 0.008645 0.100209 -0.153361 -0.161515 0.068974 0.124827 0.280626 -0.263427 0.031871 0.142444 0.021785 0.041184 0.344314 -0.008547 0.052508 -0.158213 0.419562 0.040399 -0.112638 0.127441 0.139603 -0.366604 -0.032457 0.129661 -0.264298 -0.405541 0.002038 -0.267542 0.221867 0.320598 -0.098594 -0.249755 0.255336 0.244612 0.035299 -0.380160 0.106510 -0.211861 -0.213548 0.114745 0.162881 0.068281 0.005476 0.033480
手機 0.003944 -0.033941 0.119163 -0.202663 0.013420 -0.345923 -0.049861 -0.201092 0.054240 -0.175806 0.124723 0.257445 0.117959 -0.151425 0.183765 0.212295 -0.068471 -0.199912 0.058347 0.218676 0.261371 0.030862 0.076395 -0.537074 -0.194175 -0.252772 0.108165 -0.097549 0.056476 0.020857 0.042659 0.329165 -0.068671 -0.156965 0.384199 -0.500241 -0.806441 0.170415 0.307384 0.349429 0.252586 -0.095770 0.460595 0.049863 0.294823 0.387725 0.399244 0.150022 -0.308433 -0.049650 -0.104698 -0.007307 -0.109588 -0.319169 -0.159294 0.144112 0.087851 0.091301 0.113887 -0.007189 -0.127097 0.371574 -0.100381 -0.065022 -0.112327 -0.344950 0.131385 0.265615 0.294900 -0.359678 0.095152 -0.270720 0.494641 -0.354195 0.455462 0.260729 0.213546 0.084999 -0.023780 -0.035947 0.099607 -0.004923 -0.225599 0.516387 -0.145412 0.140491 0.343608 -0.085211 0.170726 0.003415 0.329120 0.487022 -0.067832 -0.013263 0.149766 -0.286618 0.389344 -0.193932 -0.240834 0.174198 -0.090324 0.013183 0.414370 -0.138701 -0.230781 -0.183216 0.339605 -0.093165 -0.072357 0.111067 -0.282893 0.009179 0.036978 -0.303404 0.381108 0.328954 -0.351254 0.208542 0.221077 0.325156 0.103970 0.182338 -0.691736 0.043522 0.069197 0.036763 -0.137448 -0.264842 -0.104884 0.021673 -0.261810 0.158476 -0.070291 0.312366 -0.288038 0.085821 0.050806 -0.216757 -0.201229 0.298605 0.462500 0.081624 -0.097042 -0.268752 0.364132 0.141595 -0.305664 -0.031301 -0.005353 0.010709 0.391158 -0.066718 0.086305 0.164575 0.056876 -0.190529 -0.036916 0.289305 -0.230910 0.239059 -0.326625 0.557093 -0.003323 0.391542 0.036405 0.051734 0.211081 -0.015670 -0.319558 -0.540849 0.052745 -0.376707 0.641095 0.114955 -0.129336 -0.317560 0.291315 0.288430 0.062268 0.057013 0.110595 -0.247838 0.262311 0.107292 0.321749 -0.116503 0.256619 0.002690 0.106278 0.180930 0.156192 -0.097995 0.031078 0.105624 -0.492162 -0.101318 0.101019 -0.119520 0.038446 0.185099
台中 0.162995 -0.027975 -0.316743 0.050402 -0.003582 0.042395 -0.316817 0.252762 -0.200098 -0.418537 0.444818 0.475170 0.256779 -0.100773 0.216037 -0.055408 -0.346415 0.156649 -0.121414 0.196191 0.186291 0.656011 0.018604 -0.650549 0.411553 -0.335220 -0.557596 0.075551 -0.316091 -0.256860 0.120207 -0.251096 -0.203707 0.157763 -0.018858 0.041497 0.373364 -0.069363 0.198577 -0.106019 -0.224604 -0.286532 -0.127825 0.220455 -0.127130 0.036081 0.016972 -0.267158 0.075997 -0.044398 0.072972 0.161499 -0.460867 -0.275520 0.024898 0.030637 -0.066462 0.435467 0.088062 -0.037863 -0.025764 -0.161120 0.163215 -0.126199 -0.388551 0.209298 -0.067077 0.155941 0.008778 -0.538100 -0.262943 -0.201725 0.478416 -0.029485 -0.106188 -0.001899 0.185221 0.145368 0.197555 -0.188507 -0.142576 -0.270315 -0.345555 0.295325 -0.103432 -0.078671 0.104472 0.137509 0.086928 -0.068064 -0.028647 0.592845 0.162411 0.061010 -0.469376 0.156923 -0.238019 -0.077105 -0.228143 -0.292691 0.304285 0.472614 0.108664 -0.214952 0.101623 0.123487 0.544351 0.377321 0.153395 0.294853 -0.000866 -0.210841 -0.010956 0.199052 0.488393 0.283149 0.346365 0.036315 -0.093359 0.526678 0.224339 -0.079644 0.091617 -0.194617 -0.137166 0.190010 0.003831 0.036816 -0.145461 -0.102601 -0.176333 -0.146687 -0.008221 0.254933 0.127677 0.036088 -0.148747 0.068300 -0.190224 -0.000986 0.327593 -0.183117 -0.181743 -0.156873 0.016681 -0.088748 0.094600 -0.030906 -0.174860 0.132058 -0.623240 -0.167744 0.246826 -0.254187 0.058409 -0.151177 0.103643 -0.064451 0.028783 0.206204 -0.088946 0.177712 0.365497 0.049163 0.133719 0.211429 0.164567 0.298794 0.203456 -0.031194 0.018736 -0.088191 0.527747 -0.033878 -0.154415 0.192432 0.033590 -0.371103 -0.007017 0.209541 -0.160351 -0.258350 0.065733 -0.441772 0.254750 0.090786 -0.151096 0.073673 0.147915 0.211959 -0.006355 -0.377525 -0.005138 -0.369004 -0.241826 0.262412 0.361502 -0.101029 -0.120167 0.323893
二 -0.153799 -0.106586 -0.155683 -0.114709 -0.036164 -0.246081 0.254230 -0.203657 -0.131363 0.147234 0.128613 0.138305 -0.009174 -0.233326 0.001971 0.344299 -0.031445 0.409997 -0.084335 0.391556 0.279530 0.252247 -0.149693 -0.232865 0.121923 -0.072120 0.162327 0.058071 -0.166550 -0.496332 -0.084899 0.138863 0.108937 -0.041548 -0.156465 0.315211 -0.114322 0.122590 0.186794 -0.150029 0.172285 -0.249563 -0.449455 0.619055 -0.075848 0.261263 -0.018917 0.121704 -0.106049 0.128898 -0.036621 -0.336919 -0.370174 0.062805 -0.099711 -0.008999 -0.206666 -0.116931 0.313214 -0.140200 -0.070377 -0.109596 0.169983 0.211586 0.555319 -0.016495 -0.106768 0.039505 0.059823 -0.178269 0.108587 -0.181273 -0.103801 -0.250045 0.069113 -0.113412 0.234247 0.644829 -0.387448 -0.344357 -0.006129 -0.121187 0.159314 0.313009 0.066124 -0.010996 0.164603 0.038752 -0.151604 0.301017 -0.053575 0.543210 -0.143868 -0.137603 -0.194169 0.147322 0.355347 -0.136743 -0.019050 0.197763 0.080832 0.116070 -0.068065 -0.058491 0.178277 0.065383 -0.200226 -0.031882 0.266944 0.261638 -0.355456 -0.302248 0.327055 -0.060678 0.439376 0.162047 0.302719 0.216474 -0.150672 0.423302 0.317245 -0.098368 -0.149400 -0.469483 -0.230849 0.164794 -0.577783 0.323266 -0.106118 -0.280449 -0.219076 -0.111255 -0.005722 0.308988 -0.160405 -0.160298 0.107655 0.267013 0.089081 -0.424176 0.256918 -0.225974 0.007366 -0.055832 0.020084 -0.030036 -0.227011 -0.084251 0.146813 -0.400315 -0.274229 -0.098059 -0.196737 -0.226088 -0.510477 -0.191548 0.200309 -0.185550 0.177876 -0.119850 -0.075724 -0.016139 -0.043518 -0.062694 -0.166687 0.232634 0.064965 0.466530 0.257708 0.131268 -0.022379 -0.095992 0.179526 -0.004097 -0.018279 0.218625 0.237669 0.228666 -0.207389 0.416861 0.074780 -0.287269 0.076284 0.198768 0.069080 -0.116329 0.269766 0.249709 0.233181 -0.238602 0.234642 0.003507 -0.056844 -0.292828 0.143964 0.173135 -0.141758 0.168160 0.135978 0.286971
台北市 -0.016302 0.082734 -0.176366 -0.024068 0.238855 0.360421 -0.100720 0.146400 -0.337168 -0.085732 0.066116 0.201779 0.070801 0.123885 0.374095 0.021083 0.025723 0.060099 -0.294326 0.038922 -0.063563 0.151981 0.081972 -0.348341 0.145141 -0.203009 -0.288249 0.063387 -0.317530 0.071634 -0.181686 0.029235 -0.040438 0.028224 -0.145448 -0.170944 0.155941 -0.102003 0.599006 -0.153873 -0.183686 -0.108769 -0.400477 0.076255 0.115381 0.348904 -0.218279 -0.183860 0.189352 -0.018297 0.294909 -0.085320 -0.242781 -0.328397 0.109502 0.243959 0.069808 -0.008069 -0.018040 -0.169776 0.248426 -0.232623 0.274437 -0.101301 -0.159576 -0.054101 -0.247525 0.220408 -0.083007 -0.689248 0.015093 -0.297778 0.362901 -0.120858 -0.009278 -0.184557 0.170282 0.042091 0.266633 -0.017864 0.035927 0.287286 -0.301737 0.123738 -0.242854 -0.169061 0.153747 0.125962 -0.018655 -0.040766 -0.019739 0.523403 0.334491 0.095355 -0.253815 -0.011006 -0.039738 -0.212479 -0.236227 -0.016518 -0.071782 0.229183 0.107700 0.077622 0.355523 0.021910 0.342599 -0.001584 0.429273 0.344749 -0.212858 -0.246129 0.037375 -0.297050 0.361184 0.229750 0.079803 0.060976 -0.004224 0.070409 0.056982 0.032511 0.055752 -0.083458 -0.177471 0.406773 -0.143444 0.067055 -0.193546 -0.393027 -0.181037 0.186370 -0.222030 0.118837 0.269140 -0.231313 -0.054055 -0.053688 0.263101 0.010133 0.402377 -0.044123 -0.665650 -0.144288 -0.085622 -0.136581 0.206097 0.025484 -0.323837 0.261515 -0.436646 0.086504 -0.109592 -0.293646 0.288062 0.004819 0.079510 0.292462 -0.296024 -0.098878 0.133951 0.335794 0.086629 -0.172681 -0.005720 0.007928 0.080746 0.211364 0.365970 0.272193 -0.124004 -0.607557 0.303915 -0.083486 -0.011159 0.273684 0.093625 0.033041 -0.136354 0.223206 0.309909 -0.343086 0.205422 -0.446476 0.269593 0.202402 0.085126 -0.212304 -0.194174 -0.067868 0.202762 0.028867 0.009527 -0.204359 -0.540338 0.290323 0.087333 0.140572 0.213149 0.103528
